{"learner":{"attributes":{"scikit_learn":"{\"_estimator_type\": \"classifier\"}"},"feature_names":["SEXO","CICLO_POSTULA","MODALIDAD_EXTRAORDINARIO - TRASLADO EXTERNO","MODALIDAD_EXTRAORDINARIO - VICTIMA DEL TERRORISMO","MODALIDAD_EXTRAORDINARIO 1 - DIPLOMADOS CON BACHILLERATO INTERNACIONAL","MODALIDAD_EXTRAORDINARIO 2 – INGRESO DIRECTO CEPRE","MODALIDAD_EXTRAORDINARIO INGRESO DIRECTO CEPRE-UNI","MODALIDAD_INGRESO ESCOLAR NACIONAL","MODALIDAD_INTERESADO","MODALIDAD_ORDINARIO","MODALIDAD_OTROS","MODALIDAD_TALENTO BECA 18","ANIO_POSTULA_2022","ANIO_POSTULA_2023","ANIO_POSTULA_2024","NACIMIENTO_PAIS","DOMICILIO_DEPA","COLEGIO_DEPA","NACIMIENTO_DEPA","ESPECIALIDAD","DOMICILIO_PROV","COLEGIO_PROV","NACIMIENTO_PROV","DOMICILIO_DIST","COLEGIO_DIST","NACIMIENTO_DIST","PROV_NORMALIZADA","COLEGIO","COLEGIO_ANIO_EGRESO","ANIO_NACIMIENTO","CALIF_FINAL"],"feature_types":["int","int","int","int","int","int","int","int","int","int","int","int","int","int","int","float","float","float","float","float","float","float","float","float","float","float","float","float","float","float","float"],"gradient_booster":{"model":{"gbtree_model_param":{"num_parallel_tree":"1","num_trees":"100"},"iteration_indptr":[0,1,2,3,4,5,6,7,8,9,10,11,12,13,14,15,16,17,18,19,20,21,22,23,24,25,26,27,28,29,30,31,32,33,34,35,36,37,38,39,40,41,42,43,44,45,46,47,48,49,50,51,52,53,54,55,56,57,58,59,60,61,62,63,64,65,66,67,68,69,70,71,72,73,74,75,76,77,78,79,80,81,82,83,84,85,86,87,88,89,90,91,92,93,94,95,96,97,98,99,100],"tree_info":[0,0,0,0,0,0,0,0,0,0,0,0,0,0,0,0,0,0,0,0,0,0,0,0,0,0,0,0,0,0,0,0,0,0,0,0,0,0,0,0,0,0,0,0,0,0,0,0,0,0,0,0,0,0,0,0,0,0,0,0,0,0,0,0,0,0,0,0,0,0,0,0,0,0,0,0,0,0,0,0,0,0,0,0,0,0,0,0,0,0,0,0,0,0,0,0,0,0,0,0],"trees":[{"base_weights":[-2.8245017E-1,-1.0723414E0,3.170891E0,-1.2079506E0,1.5298012E-1,1.796557E0,4.1476493E0,-1.2525907E-1,-1.0470395E0,-9.451832E-1,1.7161748E0,4.4907632E-1,3.751203E0,3.431872E0,4.6016054E0,-1.249451E0,-6.0809505E-1,-9.7897625E-1,2.582948E-1,1.2396361E0,3.380746E0,-9.1093436E-2,1.2346497E0,3.020237E0,4.3175263E0,2.1291215E0,4.3041935E0,4.6990567E-1,3.4416087E0,-1.2510054E-1,-3.9019533E-2,-1.1325254E0,3.5231796E-1,-9.995079E-1,2.1555069E-1,6.422967E-1,2.672893E0,2.550683E0,4.444333E-1,-4.3016613E-1,5.956621E-1,2.0293984E0,9.223001E-2,3.1922529E0,6.5068346E-1,4.47973E-1,2.444529E0,3.6532485E0,4.901799E-1,4.5118377E-1,1.6179783E0,1.8622932E0,4.1527447E-1,-9.25817E-1,-1.220784E-1,-1.2310107E-1,2.1531792E0,-1.0534543E0,-4.4479597E-1,-8.9858025E-2,1.7089369E0,1.4471438E0,3.378261E-1,5.544186E-1,2.9504516E0,7.9693377E-1,-5.2174115E-1,1.347826E0,-6.260939E-1,2.4571888E0,6.021893E-1,-4.1406345E-1,1.9648076E0,1.9649233E0,3.6388364E0,-1.1847326E-1,2.1153359E-1,1.5274543E0,3.4873876E-1,3.1141994E0,4.4749823E-1,-2.6581848E-1,2.5087996E0,5.2618116E-1,3.2631463E-1,8.728865E-1,3.543319E-1,-1.21164754E-1,-6.313613E-1,1.4821906E0,3.6634715E0,-1.1350834E0,-7.4503374E-1,7.3069763E-1,-7.325928E-1,-5.171555E-1,1.2038969E0,4.9281058E-1,2.9815404E0,2.1488426E0,-6.4499706E-1,-5.2496016E-2,1.3330281E0,1.469969E0,3.1858113E0,-9.717122E-2,1.542111E-1,-1.1262592E-2,-6.741496E-1,2.4296699E0,7.514924E-1,9.9968955E-2,-1.0807834E-1,2.7198741E0,4.0170178E-1,-4.069595E-1,1.523776E0,-6.123526E-1,5.9246874E-1,2.732833E-1,7.227764E-1,2.7049408E0,6.9922316E-1,1.8744363E0,3.7801573E0,-5.109168E-2,7.456815E-2,1.7916892E-1,1.6813075E-2,3.8281457E0,1.2966312E0,2.838787E-1,-8.588292E-1,7.107165E-1,4.117372E-1,-3.996865E-1,2.0402864E-1,2.1976535E-1,2.0600927E-1,-7.526558E-2,7.675663E-2,3.526298E-2,2.4163201E-1,1.7564599E-1,3.9534536E-1,-1.0068796E-1,-1.2320705E-1,2.9124651E-2,-8.6778216E-2,-3.8301118E-2,1.9011877E-1,-9.161198E-2,2.86604E-2,-9.651467E-2,1.645804E-1,3.7334967E-2,1.9867828E-1,1.3436884E-1,-9.176456E-2,3.1502733E-1,1.6813075E-2,3.8834006E-2,2.8285542E-1,7.4675153E-3,-9.31722E-2,-2.6873076E-2,2.3524383E-1,2.3524383E-1,4.9459662E-2,1.0418538E-1,3.2883564E-1,5.376671E-2,-7.731436E-2,-3.553872E-2,1.3827126E-1,-2.8479233E-2,-1.0449322E-1,2.637847E-1,2.7573973E-2,-4.7910858E-2,1.9037162E-1,1.1415978E-1,-2.7879393E-2,2.0313452E-1,3.4978396E-1,-2.7120445E-2,1.7072038E-1,5.328181E-2,-1.0256356E-1,3.0294874E-1,5.9246875E-2,-7.701456E-2,1.0906979E-1,1.3139968E-1,-5.609891E-2,-2.5384923E-2,1.5603076E-1,3.604304E-2,3.1171212E-1,1.14671886E-1,-5.609891E-2,2.2913277E-1,8.696613E-2,3.8300937E-1,1.0418538E-1,3.9813972E-1,1.5889896E-1,2.329932E-1,-5.8461517E-2,1.4891812E-1,-9.480342E-2,1.2130307E-2,-9.921664E-2,-1.0256356E-1,3.4318286E-1,-8.681289E-2,9.382079E-3,1.4787154E-1,-3.269766E-2],"categories":[],"categories_nodes":[],"categories_segments":[],"categories_sizes":[],"default_left":[0,0,0,0,0,0,0,0,0,0,0,0,0,0,0,0,0,0,0,0,0,0,0,0,0,0,0,0,0,0,0,0,0,0,0,0,0,0,0,0,0,0,0,0,0,0,0,0,0,0,0,0,0,0,0,0,0,0,0,0,0,0,0,0,0,0,0,0,0,0,0,0,0,0,0,0,0,0,0,0,0,0,0,0,0,0,0,0,0,0,0,0,0,0,0,0,0,0,0,0,0,0,0,0,0,0,0,0,0,0,0,0,0,0,0,0,0,0,0,0,0,0,0,0,0,0,0,0,0,0,0,0,0,0,0,0,0,0,0,0,0,0,0,0,0,0,0,0,0,0,0,0,0,0,0,0,0,0,0,0,0,0,0,0,0,0,0,0,0,0,0,0,0,0,0,0,0,0,0,0,0,0,0,0,0,0,0,0,0,0,0,0,0,0,0,0,0,0,0,0,0,0,0,0,0,0,0,0,0,0,0,0,0,0,0,0,0,0,0],"id":0,"left_children":[1,3,5,7,9,11,13,-1,15,17,19,21,23,25,27,29,31,33,-1,35,37,39,41,43,45,47,49,-1,51,-1,-1,53,55,57,-1,59,61,63,-1,65,67,69,71,73,75,-1,77,79,81,-1,83,85,-1,87,-1,-1,89,91,93,95,97,99,-1,101,103,105,107,109,111,113,115,117,119,121,123,125,-1,127,-1,129,-1,131,133,135,-1,137,-1,-1,139,141,143,145,147,149,151,153,155,157,159,161,163,-1,165,167,169,171,-1,173,175,177,179,181,-1,183,185,187,189,191,193,-1,195,197,199,201,203,-1,-1,-1,-1,205,207,209,211,213,-1,215,-1,217,-1,-1,-1,-1,-1,-1,-1,-1,-1,-1,-1,-1,-1,-1,-1,-1,-1,-1,-1,-1,-1,-1,-1,-1,-1,-1,-1,-1,-1,-1,-1,-1,-1,-1,-1,-1,-1,-1,-1,-1,-1,-1,-1,-1,-1,-1,-1,-1,-1,-1,-1,-1,-1,-1,-1,-1,-1,-1,-1,-1,-1,-1,-1,-1,-1,-1,-1,-1,-1,-1,-1,-1,-1,-1,-1,-1,-1,-1,-1,-1,-1],"loss_changes":[1.5982595E4,7.92499E2,1.4567422E3,2.9527344E1,8.18773E2,1.196475E3,1.9113281E2,0E0,8.262048E1,3.594084E1,1.5189758E2,1.1486011E2,6.3748535E1,2.7616406E2,2.7545898E1,3.684082E-1,1.5055667E2,2.0065247E1,0E0,1.3060718E2,2.6817444E1,3.778515E1,9.991048E1,3.2285767E1,2.0095581E1,2.5468481E2,7.6032715E1,0E0,3.0126068E1,0E0,0E0,2.3920898E0,3.0505954E2,7.8259583E0,0E0,8.637662E1,3.4148193E1,1.9608109E1,0E0,1.2605312E1,5.0182983E1,3.8187103E1,4.468857E1,3.5790283E1,8.093496E0,0E0,4.5675354E0,9.560791E0,7.792986E1,0E0,2.0338821E1,1.7330124E1,0E0,4.4454536E0,0E0,0E0,4.522336E1,5.4957275E0,9.431906E0,3.7340538E1,6.8157745E1,2.8164906E1,0E0,5.46731E0,2.9643555E0,5.4324574E0,7.8928337E0,1.9817688E1,7.087549E0,2.5722137E1,1.5786412E1,7.7982535E0,7.586193E0,1.972168E1,6.944641E0,2.2501721E0,0E0,2.3150864E0,0E0,4.0870605E1,0E0,1.2545519E1,3.7250008E1,1.2833906E1,0E0,6.569649E0,0E0,0E0,6.1062717E0,3.7437317E1,1.1829071E0,1.2121887E0,7.3281746E0,8.123185E0,4.307501E0,5.06469E1,1.017609E1,3.0279665E1,9.8125E0,1.552346E1,1.1736536E0,0E0,6.474688E0,3.025838E0,5.4893494E-1,2.3660614E0,0E0,1.2178895E1,1.098933E1,4.4173737E0,3.3630867E1,3.8913715E0,0E0,1.6388977E1,6.4373245E0,5.531089E0,1.04531E1,9.335892E0,6.2629724E0,0E0,4.6407986E0,1.2611198E1,6.205011E0,5.8605003E-1,2.9987183E0,0E0,0E0,0E0,0E0,2.2001343E0,2.3665514E1,3.160699E1,2.5253086E0,4.021994E1,0E0,1.5046419E0,0E0,5.2755113E0,0E0,0E0,0E0,0E0,0E0,0E0,0E0,0E0,0E0,0E0,0E0,0E0,0E0,0E0,0E0,0E0,0E0,0E0,0E0,0E0,0E0,0E0,0E0,0E0,0E0,0E0,0E0,0E0,0E0,0E0,0E0,0E0,0E0,0E0,0E0,0E0,0E0,0E0,0E0,0E0,0E0,0E0,0E0,0E0,0E0,0E0,0E0,0E0,0E0,0E0,0E0,0E0,0E0,0E0,0E0,0E0,0E0,0E0,0E0,0E0,0E0,0E0,0E0,0E0,0E0,0E0,0E0,0E0,0E0,0E0,0E0,0E0,0E0,0E0,0E0,0E0,0E0,0E0,0E0,0E0,0E0],"parents":[2147483647,0,0,1,1,2,2,3,3,4,4,5,5,6,6,8,8,9,9,10,10,11,11,12,12,13,13,14,14,15,15,16,16,17,17,19,19,20,20,21,21,22,22,23,23,24,24,25,25,26,26,28,28,31,31,32,32,33,33,35,35,36,36,37,37,39,39,40,40,41,41,42,42,43,43,44,44,46,46,47,47,48,48,50,50,51,51,53,53,56,56,57,57,58,58,59,59,60,60,61,61,63,63,64,64,65,65,66,66,67,67,68,68,69,69,70,70,71,71,72,72,73,73,74,74,75,75,77,77,79,79,81,81,82,82,83,83,85,85,88,88,89,89,90,90,91,91,92,92,93,93,94,94,95,95,96,96,97,97,98,98,99,99,100,100,102,102,103,103,104,104,105,105,107,107,108,108,109,109,110,110,111,111,113,113,114,114,115,115,116,116,117,117,118,118,120,120,121,121,122,122,123,123,124,124,129,129,130,130,131,131,132,132,133,133,135,135,137,137],"right_children":[2,4,6,8,10,12,14,-1,16,18,20,22,24,26,28,30,32,34,-1,36,38,40,42,44,46,48,50,-1,52,-1,-1,54,56,58,-1,60,62,64,-1,66,68,70,72,74,76,-1,78,80,82,-1,84,86,-1,88,-1,-1,90,92,94,96,98,100,-1,102,104,106,108,110,112,114,116,118,120,122,124,126,-1,128,-1,130,-1,132,134,136,-1,138,-1,-1,140,142,144,146,148,150,152,154,156,158,160,162,164,-1,166,168,170,172,-1,174,176,178,180,182,-1,184,186,188,190,192,194,-1,196,198,200,202,204,-1,-1,-1,-1,206,208,210,212,214,-1,216,-1,218,-1,-1,-1,-1,-1,-1,-1,-1,-1,-1,-1,-1,-1,-1,-1,-1,-1,-1,-1,-1,-1,-1,-1,-1,-1,-1,-1,-1,-1,-1,-1,-1,-1,-1,-1,-1,-1,-1,-1,-1,-1,-1,-1,-1,-1,-1,-1,-1,-1,-1,-1,-1,-1,-1,-1,-1,-1,-1,-1,-1,-1,-1,-1,-1,-1,-1,-1,-1,-1,-1,-1,-1,-1,-1,-1,-1,-1,-1,-1,-1,-1],"split_conditions":[7.3033077E-1,5.157914E-1,9.755186E-1,1E0,1.7299578E-1,1.7299578E-1,1.1354887E0,-1.2525907E-1,-4.298262E-2,1E0,1E0,8.736685E-1,2.2651933E-1,1.2547529E-1,1E0,1E0,1.7299578E-1,1E0,2.582948E-1,1E0,1E0,1E0,8.4E-1,1E0,1E0,1.1391364E-1,1E0,4.6990567E-1,1.2913474E0,-1.2510054E-1,-3.9019533E-2,1E0,1E0,7.088395E-1,2.1555069E-1,8.4E-1,2.2651933E-1,1.418276E-1,4.444333E-1,1.3131313E-1,1E0,1E0,1E0,7.8863764E-1,1E0,4.47973E-1,1E0,1E0,1E0,4.5118377E-1,1.6342412E-1,1.7299578E-1,4.1527447E-1,1E0,-1.220784E-1,-1.2310107E-1,2.4822643E-1,1E0,7.6E-1,1E0,2.2651933E-1,2.236842E-1,3.378261E-1,2.2651933E-1,5.5690527E-1,1.17191724E-1,3.75E-1,1.1391364E-1,1E0,1E0,1E0,1.8535262E-1,1E0,2.236842E-1,1.2991217E-1,1.8548387E-1,2.1153359E-1,1.892786E-1,3.4873876E-1,1E0,4.4749823E-1,1E0,1.0713885E0,2.236842E-1,3.2631463E-1,1.8548387E-1,3.543319E-1,-1.21164754E-1,1.6666512E-1,2.1678191E-1,1.4290226E-1,1E0,1.0783365E-1,1.4634146E-1,1.8326546E-1,6.9818723E-1,2.2651933E-1,2.236842E-1,2.305447E-1,2.074948E-1,1.5034965E-1,-5.2496016E-2,1.7070265E-1,2.236842E-1,1.2589929E-1,9.734211E-2,1.542111E-1,1.4634146E-1,1E0,2.129964E-1,1.2547529E-1,7.6714635E-1,-1.0807834E-1,1.2547529E-1,1.562808E-1,1.5034965E-1,1E0,1E0,1E0,2.732833E-1,1.6607717E-1,2.074948E-1,1E0,1.1650152E-1,2.0319155E-1,-5.109168E-2,7.456815E-2,1.7916892E-1,1.6813075E-2,1E0,1E0,1E0,1.0319154E-1,1E0,4.117372E-1,1.0287796E0,2.0402864E-1,1.6172078E-1,2.0600927E-1,-7.526558E-2,7.675663E-2,3.526298E-2,2.4163201E-1,1.7564599E-1,3.9534536E-1,-1.0068796E-1,-1.2320705E-1,2.9124651E-2,-8.6778216E-2,-3.8301118E-2,1.9011877E-1,-9.161198E-2,2.86604E-2,-9.651467E-2,1.645804E-1,3.7334967E-2,1.9867828E-1,1.3436884E-1,-9.176456E-2,3.1502733E-1,1.6813075E-2,3.8834006E-2,2.8285542E-1,7.4675153E-3,-9.31722E-2,-2.6873076E-2,2.3524383E-1,2.3524383E-1,4.9459662E-2,1.0418538E-1,3.2883564E-1,5.376671E-2,-7.731436E-2,-3.553872E-2,1.3827126E-1,-2.8479233E-2,-1.0449322E-1,2.637847E-1,2.7573973E-2,-4.7910858E-2,1.9037162E-1,1.1415978E-1,-2.7879393E-2,2.0313452E-1,3.4978396E-1,-2.7120445E-2,1.7072038E-1,5.328181E-2,-1.0256356E-1,3.0294874E-1,5.9246875E-2,-7.701456E-2,1.0906979E-1,1.3139968E-1,-5.609891E-2,-2.5384923E-2,1.5603076E-1,3.604304E-2,3.1171212E-1,1.14671886E-1,-5.609891E-2,2.2913277E-1,8.696613E-2,3.8300937E-1,1.0418538E-1,3.9813972E-1,1.5889896E-1,2.329932E-1,-5.8461517E-2,1.4891812E-1,-9.480342E-2,1.2130307E-2,-9.921664E-2,-1.0256356E-1,3.4318286E-1,-8.681289E-2,9.382079E-3,1.4787154E-1,-3.269766E-2],"split_indices":[30,30,30,12,19,19,30,0,30,11,12,30,19,19,7,10,19,3,0,6,1,1,28,7,7,19,7,0,30,0,0,9,1,30,0,28,19,27,0,16,13,13,1,30,13,0,13,1,12,0,22,19,0,1,0,0,19,12,28,13,19,19,0,19,30,26,29,19,9,14,1,24,9,19,22,24,0,23,0,13,0,13,30,19,0,24,0,0,19,30,23,9,19,19,24,30,19,19,27,19,24,0,23,19,18,26,0,19,9,27,19,30,0,19,25,24,0,12,9,0,24,19,13,22,21,0,0,0,0,6,9,14,24,1,0,30,0,21,0,0,0,0,0,0,0,0,0,0,0,0,0,0,0,0,0,0,0,0,0,0,0,0,0,0,0,0,0,0,0,0,0,0,0,0,0,0,0,0,0,0,0,0,0,0,0,0,0,0,0,0,0,0,0,0,0,0,0,0,0,0,0,0,0,0,0,0,0,0,0,0,0,0,0,0,0,0,0,0,0],"split_type":[0,0,0,0,0,0,0,0,0,0,0,0,0,0,0,0,0,0,0,0,0,0,0,0,0,0,0,0,0,0,0,0,0,0,0,0,0,0,0,0,0,0,0,0,0,0,0,0,0,0,0,0,0,0,0,0,0,0,0,0,0,0,0,0,0,0,0,0,0,0,0,0,0,0,0,0,0,0,0,0,0,0,0,0,0,0,0,0,0,0,0,0,0,0,0,0,0,0,0,0,0,0,0,0,0,0,0,0,0,0,0,0,0,0,0,0,0,0,0,0,0,0,0,0,0,0,0,0,0,0,0,0,0,0,0,0,0,0,0,0,0,0,0,0,0,0,0,0,0,0,0,0,0,0,0,0,0,0,0,0,0,0,0,0,0,0,0,0,0,0,0,0,0,0,0,0,0,0,0,0,0,0,0,0,0,0,0,0,0,0,0,0,0,0,0,0,0,0,0,0,0,0,0,0,0,0,0,0,0,0,0,0,0,0,0,0,0,0,0],"sum_hessian":[5.8569824E3,4.7672476E3,1.0897349E3,4.292231E3,4.7501675E2,4.5390848E2,6.3582635E2,3.3547656E3,9.374653E2,2.7924155E2,1.9577522E2,2.694125E2,1.84496E2,2.5007668E2,3.857497E2,6.403381E2,2.9712717E2,2.7730795E2,1.9335825E0,1.5355867E2,4.2216553E1,1.6016508E2,1.0924741E2,8.3305176E1,1.0119082E2,1.0167421E2,1.4840245E2,3.5303995E2,3.270977E1,6.3872675E2,1.6113187E0,1.920692E2,1.0505798E2,2.7618002E2,1.1279231E0,1.0940854E2,4.4150135E1,2.5619968E1,1.6596582E1,1.0747496E2,5.2690125E1,6.3969353E1,4.5278057E1,7.73433E1,5.9618793E0,9.184517E1,9.345649E0,5.2045597E1,4.9628616E1,1.3712323E2,1.1279231E1,1.1279231E1,2.143054E1,6.090785E1,1.3116135E2,5.607389E1,4.898409E1,2.5088232E2,2.5297705E1,6.541954E1,4.3989002E1,1.724111E1,2.6909023E1,4.6728244E0,2.0947144E1,6.9286704E0,1.0054629E2,3.2548637E1,2.0141483E1,4.8661827E1,1.5307528E1,3.6254673E1,9.023385E0,2.2075068E1,5.5268234E1,4.5116925E0,1.4501868E0,6.284143E0,3.0615056E0,3.432109E1,1.7724506E1,3.6738068E1,1.289055E1,7.573198E0,3.706033E0,8.056594E0,3.2226374E0,2.9326E1,3.1581848E1,3.528788E1,1.3696209E1,1.9625862E2,5.4623707E1,4.6728244E0,2.062488E1,4.9628616E1,1.5790924E1,2.320299E1,2.0786013E1,1.289055E1,4.3505607E0,2.0947144E0,2.57811E0,3.867165E0,1.7079979E1,3.5449011E0,3.3837693E0,2.3364122E1,7.718217E1,1.0473572E1,2.2075068E1,8.056594E0,1.208489E1,4.286108E1,5.8007474E0,7.573198E0,7.73433E0,3.0615055E1,5.6396155E0,4.8339562E0,4.189429E0,1.3212813E1,8.862253E0,5.15622E0,5.011201E1,3.3837693E0,1.1279231E0,4.995088E0,1.289055E0,2.3847517E1,1.0473572E1,1.9335825E1,1.7402243E1,6.7675385E0,6.123011E0,5.15622E0,2.4169781E0,5.9618793E0,2.0947144E0,2.9487133E1,2.0947144E0,1.6596582E1,1.8691298E1,2.7392418E0,1.0956967E1,8.942819E1,1.0683043E2,5.6396155E0,4.898409E1,2.7392418E0,1.9335825E0,1.7563374E1,3.0615056E0,4.1572025E1,8.056594E0,8.378858E0,7.412066E0,1.4501868E1,8.701121E0,1.9496956E1,1.289055E0,4.028297E0,8.862253E0,1.4501868E0,2.9003737E0,1.289055E0,1.289055E0,1.289055E0,2.57811E0,1.289055E0,1.5790924E1,1.9335825E0,1.6113187E0,1.9335825E1,4.028297E0,3.8510517E1,3.867165E1,9.345649E0,1.1279231E0,1.0956967E1,1.1118099E1,1.6113187E0,6.445275E0,2.4653177E1,1.8207901E1,4.3505607E0,1.4501868E0,3.0615056E0,4.5116925E0,2.0947144E0,5.6396155E0,2.8520342E1,2.0947144E0,3.3837693E0,2.2558463E0,2.2558463E0,1.9335825E0,2.2558463E0,1.0956967E1,6.6064067E0,2.2558463E0,2.7392418E0,2.4169781E0,4.8822956E1,1.289055E0,2.1591671E1,2.2558463E0,6.6064067E0,3.867165E0,9.6679125E0,9.6679125E0,2.0947144E0,1.5307528E1,4.5116925E0,2.2558463E0,2.2558463E0,2.9003737E0,1.289055E0,4.6728244E0],"tree_param":{"num_deleted":"0","num_feature":"31","num_nodes":"219","size_leaf_vector":"1"}},{"base_weights":[-2.692045E-1,-1.0562689E0,2.336678E0,-1.1761302E0,5.27946E-2,1.4095786E0,2.9772813E0,-1.2227883E-1,-1.0100772E0,-9.609963E-1,1.3085585E0,3.3357042E-1,2.7181885E0,2.4323645E0,3.180317E0,-1.2195274E0,-5.732195E-1,-9.9575114E-1,2.0648825E-1,9.295554E-1,2.5160277E0,-1.203607E-1,1.045644E0,2.8336716E0,1.3351134E0,1.3781371E0,3.0061705E0,3.1885688E0,-7.111948E-2,-1.2211525E-1,-3.717272E-2,-1.097354E0,3.0825043E-1,-1.0154419E0,1.705958E-1,2.3037449E-1,1.7217954E0,1.9817464E0,3.1434584E0,1.5449369E-1,-7.211555E-1,1.4639823E0,-3.9163816E-1,2.533036E0,3.336179E-1,2.4609886E-1,5.646362E-1,2.4427836E0,1.3813999E-2,3.1161687E0,1.366699E0,2.9415553E0,3.3754486E-1,-8.8574135E-1,-1.1894597E-1,-1.2005683E-1,1.7341777E0,-1.0998269E0,-7.0429987E-1,-5.25412E-1,1.4530619E0,7.920632E-1,2.428887E0,4.3087345E-1,2.2649972E0,3.2313302E-1,7.870757E-2,6.83094E-1,-7.208813E-1,-2.9383993E-1,-1.1535616E-1,2.094565E0,5.153225E-1,1.1892372E-1,-5.6127906E-1,1.9568894E0,2.8089375E0,-2.2784682E-1,1.0624626E0,2.8042343E0,1.5712013E0,5.287536E-1,-9.09246E-1,7.825183E-2,3.128431E-1,3.979112E-1,2.437826E-1,2.4896228E0,3.2536788E0,-1.18071966E-1,-5.920472E-1,1.2296665E0,2.7672853E0,-9.674741E-1,-1.2014102E-1,8.3609976E-2,-7.8108954E-1,-1.0748273E0,1.2315038E0,5.986309E-1,2.0000126E0,1.4457605E0,-7.191908E-1,-2.571769E-2,2.5173295E0,-8.126924E-2,1.3169005E0,3.5151895E-2,2.3376067E0,1.1422987E0,2.6622424E-1,3.1133503E-1,-8.784312E-1,4.0523186E-1,-7.1893644E-1,1.6286678E0,2.5898783E0,-3.1561714E-1,1.4458772E0,1.08647764E-1,-7.230711E-1,2.0946226E0,3.9036295E-1,2.8826475E-1,1.4401149E0,-5.6958992E-2,5.789224E-2,-7.507994E-2,1.4883894E0,2.9430099E0,9.607383E-1,1.8971007E-1,2.8279322E-1,1.1877908E0,-1.0635535E-1,-1.0457579E0,3.0711398E-2,-3.189329E-1,1.3125359E-1,3.1305194E0,1.8034233E0,3.322856E-1,1.897008E0,-7.123142E-2,6.929323E-2,3.1281333E-2,1.9100414E-1,1.9364862E-1,3.249819E-1,-1.008835E-2,-1.00492254E-1,1.8430343E-2,-8.992004E-2,-1.1951802E-1,2.0672603E-2,-3.5420816E-2,2.732992E-1,1.58121E-1,-4.257971E-2,2.2487476E-1,-1.5345498E-2,6.330404E-3,1.7836277E-1,2.0189745E-2,-1.0677039E-1,2.6238772E-1,6.0536165E-2,4.2237602E-2,1.771618E-1,5.0260164E-2,2.4336138E-1,1.6664223E-1,6.043727E-2,-7.6343805E-2,1.4092886E-1,1.1061708E-1,-6.632862E-2,-9.379253E-2,4.0900685E-2,2.769281E-1,-7.7247486E-2,-1.4115447E-2,-7.745554E-2,2.5623488E-1,7.445564E-2,3.4810704E-1,1.6111188E-1,2.4121506E-2,-9.19825E-2,2.8341183E-1,9.28128E-2,-9.206282E-2,1.7584464E-2,1.7429587E-1,2.909149E-1,1.3632008E-1,-2.7919903E-2,8.504309E-3,1.7479135E-1,1.8928532E-1,3.7622813E-2,2.9937112E-1,8.050308E-2,1.7081957E-1,-2.9267022E-2,-3.922654E-2,1.9302218E-1,4.369664E-2,1.9872552E-1,-1.1173793E-1,-2.2866158E-2,-8.39533E-2,4.7566365E-2,3.213515E-1,1.16755605E-1,1.0809338E-1,3.322821E-1,2.3463106E-2,2.6985788E-1],"categories":[],"categories_nodes":[],"categories_segments":[],"categories_sizes":[],"default_left":[0,0,0,0,0,0,0,0,0,0,0,0,0,0,0,0,0,0,0,0,0,0,0,0,0,0,0,0,0,0,0,0,0,0,0,0,0,0,0,0,0,0,0,0,0,0,0,0,0,0,0,0,0,0,0,0,0,0,0,0,0,0,0,0,0,0,0,0,0,0,0,0,0,0,0,0,0,0,0,0,0,0,0,0,0,0,0,0,0,0,0,0,0,0,0,0,0,0,0,0,0,0,0,0,0,0,0,0,0,0,0,0,0,0,0,0,0,0,0,0,0,0,0,0,0,0,0,0,0,0,0,0,0,0,0,0,0,0,0,0,0,0,0,0,0,0,0,0,0,0,0,0,0,0,0,0,0,0,0,0,0,0,0,0,0,0,0,0,0,0,0,0,0,0,0,0,0,0,0,0,0,0,0,0,0,0,0,0,0,0,0,0,0,0,0,0,0,0,0,0,0,0,0,0,0,0,0,0,0,0,0,0,0,0,0,0,0,0,0],"id":1,"left_children":[1,3,5,7,9,11,13,-1,15,17,19,21,23,25,27,29,31,33,-1,35,37,39,41,43,45,47,49,51,-1,-1,-1,53,55,57,-1,59,61,63,65,67,69,71,73,75,-1,-1,77,79,81,83,85,87,-1,89,-1,-1,91,93,95,97,99,101,103,105,107,-1,-1,109,111,113,-1,115,117,-1,119,121,123,125,127,129,131,133,135,-1,-1,137,-1,139,141,-1,143,145,147,149,-1,-1,151,153,155,157,159,161,163,-1,165,-1,167,-1,169,171,173,175,177,179,181,183,185,187,189,-1,191,193,195,-1,197,-1,-1,-1,199,201,203,205,-1,207,-1,209,-1,211,-1,213,215,-1,217,-1,-1,-1,-1,-1,-1,-1,-1,-1,-1,-1,-1,-1,-1,-1,-1,-1,-1,-1,-1,-1,-1,-1,-1,-1,-1,-1,-1,-1,-1,-1,-1,-1,-1,-1,-1,-1,-1,-1,-1,-1,-1,-1,-1,-1,-1,-1,-1,-1,-1,-1,-1,-1,-1,-1,-1,-1,-1,-1,-1,-1,-1,-1,-1,-1,-1,-1,-1,-1,-1,-1,-1,-1,-1,-1,-1],"loss_changes":[1.179449E4,5.871509E2,7.880737E2,2.9644531E1,5.5085205E2,7.693213E2,7.944678E1,0E0,7.98219E1,2.723677E1,8.610452E1,9.752292E1,3.5617798E1,1.27825806E2,2.0597656E1,3.642578E-1,1.3296884E2,1.4361511E1,0E0,8.195906E1,9.051239E0,3.0646263E1,7.116806E1,2.5809937E1,1.6741432E1,1.14333664E2,2.1064575E1,1.6375488E1,0E0,0E0,0E0,2.459549E0,2.3406877E2,5.4298096E0,0E0,7.481274E1,4.379619E1,1.1027672E1,1.4443359E0,5.9579784E1,1.0418209E1,5.344803E1,7.977618E0,1.7718933E1,0E0,0E0,5.649718E0,9.524811E0,1.7362772E1,1.295166E0,1.0040108E1,2.7615723E1,0E0,4.3757515E0,0E0,0E0,2.5704666E1,1.3129883E0,6.94549E0,4.983426E1,1.3232246E1,3.2185524E1,9.916855E0,7.080584E0,2.355812E0,0E0,0E0,1.503521E1,8.171225E0,9.391712E0,0E0,8.342178E0,2.9624668E1,0E0,7.529349E0,1.0097412E1,5.5809937E0,2.0148227E0,7.7556276E0,4.8431854E0,2.5917236E1,2.585146E1,2.4940958E0,0E0,0E0,4.8548956E0,0E0,4.1716003E1,7.446167E0,0E0,5.3397493E0,2.3931519E1,7.319031E-1,2.6597672E0,0E0,0E0,6.002283E0,6.2342606E0,3.0581934E1,1.4240022E1,1.020002E1,1.0321743E1,3.4857998E0,0E0,6.1259155E0,0E0,7.025943E-1,0E0,2.6275558E0,9.657349E0,5.2045044E1,6.28743E0,3.6308403E0,3.6160103E1,5.142164E-1,2.3468704E1,1.5925232E1,7.2026134E0,1.0288414E1,0E0,4.3590984E0,8.183289E0,3.844261E0,0E0,2.7405949E0,0E0,0E0,0E0,2.5695763E0,5.6004333E-1,3.8574302E0,9.19499E0,0E0,9.362661E0,0E0,4.4633007E-1,0E0,2.3012943E0,0E0,5.098694E0,5.608998E1,0E0,1.1943733E1,0E0,0E0,0E0,0E0,0E0,0E0,0E0,0E0,0E0,0E0,0E0,0E0,0E0,0E0,0E0,0E0,0E0,0E0,0E0,0E0,0E0,0E0,0E0,0E0,0E0,0E0,0E0,0E0,0E0,0E0,0E0,0E0,0E0,0E0,0E0,0E0,0E0,0E0,0E0,0E0,0E0,0E0,0E0,0E0,0E0,0E0,0E0,0E0,0E0,0E0,0E0,0E0,0E0,0E0,0E0,0E0,0E0,0E0,0E0,0E0,0E0,0E0,0E0,0E0,0E0,0E0,0E0,0E0,0E0,0E0,0E0,0E0,0E0,0E0,0E0,0E0],"parents":[2147483647,0,0,1,1,2,2,3,3,4,4,5,5,6,6,8,8,9,9,10,10,11,11,12,12,13,13,14,14,15,15,16,16,17,17,19,19,20,20,21,21,22,22,23,23,24,24,25,25,26,26,27,27,31,31,32,32,33,33,35,35,36,36,37,37,38,38,39,39,40,40,41,41,42,42,43,43,46,46,47,47,48,48,49,49,50,50,51,51,53,53,56,56,57,57,58,58,59,59,60,60,61,61,62,62,63,63,64,64,67,67,68,68,69,69,71,71,72,72,74,74,75,75,76,76,77,77,78,78,79,79,80,80,81,81,82,82,85,85,87,87,88,88,90,90,91,91,92,92,93,93,96,96,97,97,98,98,99,99,100,100,101,101,102,102,104,104,106,106,108,108,109,109,110,110,111,111,112,112,113,113,114,114,115,115,116,116,117,117,118,118,120,120,121,121,122,122,124,124,128,128,129,129,130,130,131,131,133,133,135,135,137,137,139,139,140,140,142,142],"right_children":[2,4,6,8,10,12,14,-1,16,18,20,22,24,26,28,30,32,34,-1,36,38,40,42,44,46,48,50,52,-1,-1,-1,54,56,58,-1,60,62,64,66,68,70,72,74,76,-1,-1,78,80,82,84,86,88,-1,90,-1,-1,92,94,96,98,100,102,104,106,108,-1,-1,110,112,114,-1,116,118,-1,120,122,124,126,128,130,132,134,136,-1,-1,138,-1,140,142,-1,144,146,148,150,-1,-1,152,154,156,158,160,162,164,-1,166,-1,168,-1,170,172,174,176,178,180,182,184,186,188,190,-1,192,194,196,-1,198,-1,-1,-1,200,202,204,206,-1,208,-1,210,-1,212,-1,214,216,-1,218,-1,-1,-1,-1,-1,-1,-1,-1,-1,-1,-1,-1,-1,-1,-1,-1,-1,-1,-1,-1,-1,-1,-1,-1,-1,-1,-1,-1,-1,-1,-1,-1,-1,-1,-1,-1,-1,-1,-1,-1,-1,-1,-1,-1,-1,-1,-1,-1,-1,-1,-1,-1,-1,-1,-1,-1,-1,-1,-1,-1,-1,-1,-1,-1,-1,-1,-1,-1,-1,-1,-1,-1,-1,-1,-1,-1],"split_conditions":[7.088395E-1,5.157914E-1,9.755186E-1,1E0,1.7299578E-1,1.7299578E-1,1.0857784E0,-1.2227883E-1,-4.298262E-2,1E0,1E0,8.736685E-1,9.2E-1,1.2547529E-1,9.6E-1,1E0,1.7299578E-1,1E0,2.0648825E-1,8.4E-1,1E0,1E0,1E0,2.4822643E-1,1E0,1.1391364E-1,1E0,1.2483648E0,-7.111948E-2,-1.2211525E-1,-3.717272E-2,1E0,1E0,1E0,1.705958E-1,1E0,2.2651933E-1,1.418276E-1,1.7648114E-1,1E0,1E0,1E0,1.0783365E-1,7.8863764E-1,3.336179E-1,2.4609886E-1,2.2651933E-1,1E0,1E0,9.928423E-2,1.6342412E-1,1.2547529E-1,3.3754486E-1,1E0,-1.1894597E-1,-1.2005683E-1,2.4822643E-1,1E0,1.0303033E-1,1E0,2.2651933E-1,2.236842E-1,9.423361E-2,1.6253974E-1,5.270043E-1,3.2313302E-1,7.870757E-2,1E0,1.4084508E-1,1E0,-1.1535616E-1,1.2547529E-1,1E0,1.1892372E-1,3.75E-1,2.3583663E-1,1.6363636E-1,1.914288E-1,7.5499904E-1,9.2E-1,1E0,1E0,1.8619582E-1,7.825183E-2,3.128431E-1,2.236842E-1,2.437826E-1,1.1391364E-1,1E0,-1.18071966E-1,1.6666512E-1,2.1678191E-1,1.8127453E-1,7.2E-1,-1.2014102E-1,8.3609976E-2,1.0783365E-1,6.9818723E-1,2.2651933E-1,8E-1,2.936803E-1,2.074948E-1,1.5034965E-1,-2.571769E-2,2.305447E-1,-8.126924E-2,2.4822643E-1,3.5151895E-2,1.5159026E-1,1E0,1E0,1E0,1.730769E-1,1E0,7.6E-1,1.1391364E-1,1.5788005E-1,1E0,1E0,1.08647764E-1,1.784188E-1,2.2651933E-1,1.5561832E-1,2.8826475E-1,1.4197531E-1,-5.6958992E-2,5.789224E-2,-7.507994E-2,1.8060201E-1,2.2097637E-1,1.0439171E0,8.8E-1,2.8279322E-1,1.6916631E-1,-1.0635535E-1,1.8353283E-1,3.0711398E-2,1.0287796E0,1.3125359E-1,1E0,1E0,3.322856E-1,1.7299578E-1,-7.123142E-2,6.929323E-2,3.1281333E-2,1.9100414E-1,1.9364862E-1,3.249819E-1,-1.008835E-2,-1.00492254E-1,1.8430343E-2,-8.992004E-2,-1.1951802E-1,2.0672603E-2,-3.5420816E-2,2.732992E-1,1.58121E-1,-4.257971E-2,2.2487476E-1,-1.5345498E-2,6.330404E-3,1.7836277E-1,2.0189745E-2,-1.0677039E-1,2.6238772E-1,6.0536165E-2,4.2237602E-2,1.771618E-1,5.0260164E-2,2.4336138E-1,1.6664223E-1,6.043727E-2,-7.6343805E-2,1.4092886E-1,1.1061708E-1,-6.632862E-2,-9.379253E-2,4.0900685E-2,2.769281E-1,-7.7247486E-2,-1.4115447E-2,-7.745554E-2,2.5623488E-1,7.445564E-2,3.4810704E-1,1.6111188E-1,2.4121506E-2,-9.19825E-2,2.8341183E-1,9.28128E-2,-9.206282E-2,1.7584464E-2,1.7429587E-1,2.909149E-1,1.3632008E-1,-2.7919903E-2,8.504309E-3,1.7479135E-1,1.8928532E-1,3.7622813E-2,2.9937112E-1,8.050308E-2,1.7081957E-1,-2.9267022E-2,-3.922654E-2,1.9302218E-1,4.369664E-2,1.9872552E-1,-1.1173793E-1,-2.2866158E-2,-8.39533E-2,4.7566365E-2,3.213515E-1,1.16755605E-1,1.0809338E-1,3.322821E-1,2.3463106E-2,2.6985788E-1],"split_indices":[30,30,30,12,19,19,30,0,30,11,12,30,28,19,28,10,19,3,0,28,1,13,14,19,7,19,7,30,0,0,0,9,1,12,0,13,19,27,21,14,9,13,19,30,0,0,19,13,13,26,22,19,0,1,0,0,19,9,20,14,19,19,27,23,30,0,0,12,18,6,0,19,1,0,29,19,20,24,30,28,1,14,18,0,0,19,0,19,7,0,19,30,30,28,0,0,19,30,19,28,19,19,24,0,27,0,19,0,26,1,1,9,21,7,28,19,19,9,0,0,23,19,24,0,16,0,0,0,23,25,30,28,0,23,0,25,0,30,0,7,12,0,19,0,0,0,0,0,0,0,0,0,0,0,0,0,0,0,0,0,0,0,0,0,0,0,0,0,0,0,0,0,0,0,0,0,0,0,0,0,0,0,0,0,0,0,0,0,0,0,0,0,0,0,0,0,0,0,0,0,0,0,0,0,0,0,0,0,0,0,0,0,0,0,0,0,0,0,0],"split_type":[0,0,0,0,0,0,0,0,0,0,0,0,0,0,0,0,0,0,0,0,0,0,0,0,0,0,0,0,0,0,0,0,0,0,0,0,0,0,0,0,0,0,0,0,0,0,0,0,0,0,0,0,0,0,0,0,0,0,0,0,0,0,0,0,0,0,0,0,0,0,0,0,0,0,0,0,0,0,0,0,0,0,0,0,0,0,0,0,0,0,0,0,0,0,0,0,0,0,0,0,0,0,0,0,0,0,0,0,0,0,0,0,0,0,0,0,0,0,0,0,0,0,0,0,0,0,0,0,0,0,0,0,0,0,0,0,0,0,0,0,0,0,0,0,0,0,0,0,0,0,0,0,0,0,0,0,0,0,0,0,0,0,0,0,0,0,0,0,0,0,0,0,0,0,0,0,0,0,0,0,0,0,0,0,0,0,0,0,0,0,0,0,0,0,0,0,0,0,0,0,0,0,0,0,0,0,0,0,0,0,0,0,0,0,0,0,0,0,0],"sum_hessian":[5.748408E3,4.4154023E3,1.3330059E3,3.9846985E3,4.3070392E2,5.460079E2,7.869979E2,3.1056877E3,8.790109E2,2.38442E2,1.9226192E2,3.003221E2,2.4568578E2,2.171582E2,5.698397E2,5.929373E2,2.860736E2,2.3639769E2,2.0443099E0,1.476782E2,4.458371E1,1.8391277E2,1.1640933E2,2.2578456E2,1.9901215E1,7.7737144E1,1.3942107E2,5.688143E2,1.0255038E0,5.9136346E2,1.5738823E0,1.7924628E2,1.0682732E2,2.3530687E2,1.0908251E0,7.913205E1,6.854616E1,2.6325258E1,1.8258453E1,1.2669473E2,5.7218037E1,9.015118E1,2.6258158E1,1.450476E2,8.073695E1,7.1942964E0,1.2706919E1,4.3220024E1,3.451712E1,1.2981087E2,9.610199E0,2.5220088E2,3.1661334E2,5.75778E1,1.2166849E2,5.1981785E1,5.4845528E1,1.8311052E2,5.219635E1,4.925566E1,2.987639E1,3.0527145E1,3.8019012E1,4.454865E0,2.1870394E1,1.7244095E1,1.0143585E0,7.913079E1,4.756394E1,2.962316E1,2.759488E1,5.342871E1,3.6722466E1,1.9621993E0,2.4295958E1,4.9588364E1,9.545924E1,5.111812E0,7.595106E0,2.8983131E1,1.4236892E1,2.2430939E1,1.2086182E1,1.0173265E0,1.2879353E2,5.7663107E0,3.8438888E0,1.0669325E2,1.4550763E2,2.721928E1,3.0358519E1,3.832166E1,1.6523869E1,8.408291E1,9.902761E1,2.0089364E0,5.0187416E1,3.78177E1,1.1437961E1,1.247804E1,1.7398352E1,2.1339863E1,9.1872835E0,1.1511104E0,3.68679E1,1.8879032E0,2.5669618E0,1.0131115E0,2.0857283E1,3.6825417E1,4.2305378E1,6.169203E0,4.1394733E1,1.1219465E1,1.8403694E1,2.9741598E1,2.3687113E1,1.9748688E1,1.6973778E1,1.661302E0,2.2634655E1,4.5270912E1,4.317452E0,8.953209E1,5.9271574E0,3.797288E0,1.3145243E0,1.2996165E0,6.29549E0,2.6399397E1,2.5837355E0,7.3300815E0,6.9068103E0,1.6044395E1,6.3865433E0,1.0992726E1,1.0934554E0,3.5978017E0,2.1685088E0,5.3325863E1,5.336739E1,1.3706915E2,8.438487E0,2.8167828E1,2.1906908E0,1.6945787E1,2.1375872E1,7.9129524E0,8.610915E0,3.6360176E0,8.044689E1,5.409748E0,4.4777668E1,3.4632683E1,3.1850164E0,5.9345813E0,5.5033793E0,6.091693E0,6.386347E0,1.5557184E1,1.8411677E0,4.4242897E0,1.6915573E1,2.6374454E0,6.5498376E0,3.456913E1,2.2987723E0,1.5151737E0,1.0517879E0,1.3469913E0,1.951029E1,1.7589434E1,1.9235983E1,2.2431442E1,1.9873934E1,3.3236675E0,2.8455353E0,3.9825813E1,1.5689199E0,3.2813287E0,7.938136E0,1.9266905E0,1.6477005E1,1.3542057E1,1.6199541E1,1.1060009E1,1.2627104E1,1.0589905E1,9.158782E0,3.395501E0,1.3578278E1,1.8536654E1,4.0980024E0,3.3812523E1,1.1458388E1,1.3377761E0,2.979676E0,1.3333646E0,4.593793E0,4.10181E0,2.19368E0,2.5396866E1,1.0025296E0,1.3912423E0,1.1924933E0,6.073807E0,1.2562745E0,9.071443E0,6.972954E0,9.768945E0,1.2237823E0,2.1395009E0,1.4583008E0,5.0551434E1,2.7744277E0,3.7328648E1,1.603874E1,3.165752E0,5.272735E0],"tree_param":{"num_deleted":"0","num_feature":"31","num_nodes":"219","size_leaf_vector":"1"}},{"base_weights":[-2.5616023E-1,-1.0246822E0,1.9210322E0,-1.1483711E0,4.6033133E-2,1.1365556E0,2.3600945E0,-1.1970767E-1,-9.771693E-1,-9.238997E-1,1.1185675E0,1.8367673E-1,2.174664E0,1.959448E0,2.53955E0,-1.1936553E0,-5.419968E-1,-9.594816E-1,1.796991E-1,8.042288E-1,2.0632517E0,4.559794E-1,-6.69181E-1,1.802309E0,2.4527667E0,1.1003706E0,2.3968275E0,2.5828688E0,1.9681493E0,-1.1953687E-1,-3.541438E-2,-1.0651902E0,2.7582628E-1,-9.798486E-1,1.5428104E-1,2.0648547E-1,1.4340291E0,1.6482364E0,2.5410757E0,9.7983146E-1,-3.4405968E-1,-2.7785724E-1,-1.0854275E0,2.1355946E0,1.2249357E0,2.524338E-1,1.476395E0,1.9397546E0,-2.0133778E-2,2.4765368E0,1.2620741E0,2.4243205E0,2.704583E-1,1.2811681E0,2.414428E-1,-8.478706E-1,-1.1618226E-1,-1.1739389E-1,1.4553565E0,-1.0674781E0,-6.649706E-1,-4.9391562E-1,1.2290703E0,6.8462926E-1,1.9686122E0,4.0746224E-1,1.8537041E0,2.602902E-1,7.018353E-2,4.2275795E-1,1.6525562E0,-5.671E-1,6.8435526E-1,9.6383286E-1,-4.6599504E-1,-1.141082E0,-3.1895378E-1,1.7292095E0,2.9029744E0,2.46954E-1,1.8499566E0,4.2087603E-3,1.776494E0,2.282022E0,1.1541903E0,4.1022024E-1,-8.765873E-1,2.169857E0,2.6043376E-1,5.565802E-1,2.0735612E0,2.1004899E0,2.642661E-1,6.145695E-1,2.3181064E-1,-1.1533809E-1,-5.547703E-1,1.0448815E0,2.2616239E0,-9.30264E-1,-1.1745749E-1,-9.771943E-1,-2.0657218E-1,-1.0417819E0,1.064115E0,-4.290267E-1,1.4014729E0,1.2159247E0,-6.8500775E-1,-6.0301092E-3,2.0465195E0,-7.861845E-2,1.1984477E0,2.458351E-1,1.4670697E0,8.294149E-1,3.2679968E-2,4.793809E-2,1.7353171E0,-1.9329736E-1,-9.4740844E-1,-2.2184803E-1,1.5089103E0,1.4801896E0,-4.78298E-3,-5.926862E-1,1.2722036E-1,-2.9739982E-2,-1.1720451E-1,-7.406917E-2,3.5653677E-2,2.1782053E0,5.7988193E-2,3.0164024E-1,3.0533193E-2,6.86236E-1,-6.596683E-1,1.0917611E0,1.9962106E0,2.1079736E0,3.8535282E-1,2.365303E-1,9.591225E-1,-1.0766015E-1,2.3670934E-1,7.872259E-1,-9.073285E-1,-9.8759454E-1,1.9188264E-2,2.2282197E0,1.0597564E0,-5.452716E-2,9.7559303E-1,5.6395013E-2,2.537564E-1,2.5601912E-1,1.5800073E0,-4.6491724E-2,1.5810311E0,6.9949605E-2,-6.8001285E-2,2.2354377E-2,1.5438041E-1,1.35877E-1,2.494704E-1,-9.346015E-3,-9.686057E-2,-5.527048E-2,-1.1569295E-1,1.2047633E-1,-5.0872713E-2,-1.1674094E-1,1.8929735E-2,-3.301445E-2,2.2242618E-1,-8.004465E-2,2.2433138E-2,2.286454E-2,1.6246396E-1,-1.2994311E-2,1.5092948E-1,1.8549431E-2,-1.0376986E-1,2.3659109E-1,1.4212231E-1,3.9100736E-2,1.598954E-1,-1.07384555E-1,2.1077363E-1,-1.7881198E-2,1.0274495E-1,-7.100797E-2,8.453445E-2,1.0442517E-1,-8.1269234E-2,8.973334E-2,1.834123E-1,6.675558E-2,-4.5866642E-2,-1.1235269E-1,-2.6487416E-2,5.271552E-2,-9.4589144E-2,2.3845671E-1,6.102509E-2,2.5074234E-2,2.006872E-1,-1.8611943E-2,-1.0625111E-1,2.2733544E-1,4.1069016E-2,-3.8445584E-2,1.4156038E-1,1.33817E-1,-6.1823536E-2,1.0137638E-2,-1.0501808E-1,3.640119E-2,1.4755373E-1,4.510311E-2,2.0843041E-1,6.907E-2,2.3618372E-1,8.070618E-2,-2.1299131E-2,1.5757121E-1,-2.7887989E-2,5.324169E-2,-9.7532846E-2,1.8590307E-2,1.3207287E-1,-1.5320952E-2,-1.0147808E-1,-1.0473718E-1,-1.2415289E-2,2.4233595E-1,1.7577308E-1,-4.2967945E-2,1.7465793E-1,5.0321113E-2,1.6797215E-1,2.2755854E-1,1.1122349E-2,-4.391099E-2,1.3439184E-1,4.3255053E-2,2.066236E-1],"categories":[],"categories_nodes":[],"categories_segments":[],"categories_sizes":[],"default_left":[0,0,0,0,0,0,0,0,0,0,0,0,0,0,0,0,0,0,0,0,0,0,0,0,0,0,0,0,0,0,0,0,0,0,0,0,0,0,0,0,0,0,0,0,0,0,0,0,0,0,0,0,0,0,0,0,0,0,0,0,0,0,0,0,0,0,0,0,0,0,0,0,0,0,0,0,0,0,0,0,0,0,0,0,0,0,0,0,0,0,0,0,0,0,0,0,0,0,0,0,0,0,0,0,0,0,0,0,0,0,0,0,0,0,0,0,0,0,0,0,0,0,0,0,0,0,0,0,0,0,0,0,0,0,0,0,0,0,0,0,0,0,0,0,0,0,0,0,0,0,0,0,0,0,0,0,0,0,0,0,0,0,0,0,0,0,0,0,0,0,0,0,0,0,0,0,0,0,0,0,0,0,0,0,0,0,0,0,0,0,0,0,0,0,0,0,0,0,0,0,0,0,0,0,0,0,0,0,0,0,0,0,0,0,0,0,0,0,0,0,0,0,0,0,0,0,0,0,0,0,0,0,0,0,0,0,0,0,0,0,0,0,0,0,0,0,0],"id":2,"left_children":[1,3,5,7,9,11,13,-1,15,17,19,21,23,25,27,29,31,33,-1,35,37,39,41,43,45,47,49,51,53,-1,-1,55,57,59,-1,61,63,65,67,69,71,73,75,77,79,-1,81,83,85,87,89,91,-1,93,-1,95,-1,-1,97,99,101,103,105,107,109,111,113,-1,-1,115,117,119,121,123,125,127,129,131,133,135,137,-1,139,141,143,145,147,149,-1,151,153,155,-1,157,-1,-1,159,161,163,165,-1,167,169,171,173,175,177,179,181,-1,183,-1,185,-1,187,189,191,193,195,197,199,201,203,205,-1,207,-1,-1,-1,-1,-1,209,211,-1,-1,213,215,217,219,221,223,-1,225,227,-1,229,231,233,-1,235,237,-1,239,-1,-1,-1,241,243,245,-1,-1,-1,-1,-1,-1,-1,-1,-1,-1,-1,-1,-1,-1,-1,-1,-1,-1,-1,-1,-1,-1,-1,-1,-1,-1,-1,-1,-1,-1,-1,-1,-1,-1,-1,-1,-1,-1,-1,-1,-1,-1,-1,-1,-1,-1,-1,-1,-1,-1,-1,-1,-1,-1,-1,-1,-1,-1,-1,-1,-1,-1,-1,-1,-1,-1,-1,-1,-1,-1,-1,-1,-1,-1,-1,-1,-1,-1,-1,-1,-1,-1,-1,-1,-1,-1,-1,-1],"loss_changes":[9.319358E3,5.452095E2,4.9783252E2,2.9600098E1,4.4548773E2,5.173303E2,6.1944824E1,0E0,7.6862915E1,2.3497742E1,5.8723404E1,6.39349E1,2.150879E1,1.0719653E2,1.0744629E1,3.6572266E-1,1.1802668E2,1.2858841E1,0E0,5.7758728E1,5.752594E0,8.762535E1,1.0565224E1,1.8710785E1,6.0961304E0,9.452923E1,1.4317383E1,4.8518066E0,1.2010147E1,0E0,0E0,2.5431519E0,1.8664073E2,5.400879E0,0E0,5.8111103E1,2.8668274E1,6.8097534E0,6.129608E-1,4.6566467E1,1.9461445E1,8.796077E0,1.0003815E0,1.6473633E1,2.5770096E1,0E0,5.0944614E0,1.2812225E1,1.6583223E1,1.3706055E0,7.2595634E0,1.328479E1,0E0,1.3457691E1,0E0,4.3220863E0,0E0,0E0,1.751931E1,1.4289856E0,7.078287E0,4.239181E1,1.0012989E1,2.4648413E1,6.951416E0,6.132733E0,2.2791138E0,0E0,0E0,1.1129997E1,7.458084E0,9.608797E0,1.1746942E1,2.6969724E0,7.735484E0,4.202423E-1,1.2762897E0,3.5540985E1,5.675873E0,7.5750446E0,7.062683E-1,0E0,3.756216E0,2.0270386E0,3.0034166E1,1.5604659E1,1.9733143E0,1.4411011E0,0E0,4.792677E0,3.0994473E0,2.2790009E1,0E0,9.315886E0,0E0,0E0,5.220893E0,1.6729782E1,6.9451904E-1,2.4771576E0,0E0,1.6486244E0,9.94217E0,5.8330574E0,2.1886993E1,1.1178575E0,7.495701E0,9.648945E0,3.1972218E0,0E0,4.9512024E0,0E0,5.721617E-1,0E0,3.1299465E1,7.0511017E0,2.2897972E1,4.118688E0,2.8230438E0,8.528603E0,3.7757702E0,4.917413E0,4.9384537E0,1.6723428E0,0E0,5.5769205E0,0E0,0E0,0E0,0E0,0E0,5.3628387E0,7.207651E0,0E0,0E0,1.1488941E1,1.9927104E0,1.2545881E0,1.8650589E0,1.1668053E0,9.6170807E-1,0E0,3.4861403E0,6.346654E0,0E0,7.4035807E0,4.225998E-1,5.815582E-1,0E0,7.764282E-1,5.7001114E0,0E0,1.4978685E0,0E0,0E0,0E0,5.6154953E1,5.8099546E0,2.3964863E0,0E0,0E0,0E0,0E0,0E0,0E0,0E0,0E0,0E0,0E0,0E0,0E0,0E0,0E0,0E0,0E0,0E0,0E0,0E0,0E0,0E0,0E0,0E0,0E0,0E0,0E0,0E0,0E0,0E0,0E0,0E0,0E0,0E0,0E0,0E0,0E0,0E0,0E0,0E0,0E0,0E0,0E0,0E0,0E0,0E0,0E0,0E0,0E0,0E0,0E0,0E0,0E0,0E0,0E0,0E0,0E0,0E0,0E0,0E0,0E0,0E0,0E0,0E0,0E0,0E0,0E0,0E0,0E0,0E0,0E0,0E0,0E0,0E0,0E0,0E0,0E0,0E0,0E0,0E0,0E0,0E0,0E0,0E0,0E0,0E0,0E0,0E0,0E0],"parents":[2147483647,0,0,1,1,2,2,3,3,4,4,5,5,6,6,8,8,9,9,10,10,11,11,12,12,13,13,14,14,15,15,16,16,17,17,19,19,20,20,21,21,22,22,23,23,24,24,25,25,26,26,27,27,28,28,31,31,32,32,33,33,35,35,36,36,37,37,38,38,39,39,40,40,41,41,42,42,43,43,44,44,46,46,47,47,48,48,49,49,50,50,51,51,53,53,55,55,58,58,59,59,60,60,61,61,62,62,63,63,64,64,65,65,66,66,69,69,70,70,71,71,72,72,73,73,74,74,75,75,76,76,77,77,78,78,79,79,80,80,82,82,83,83,84,84,85,85,86,86,87,87,89,89,90,90,91,91,93,93,96,96,97,97,98,98,99,99,101,101,102,102,103,103,104,104,105,105,106,106,107,107,108,108,110,110,112,112,114,114,115,115,116,116,117,117,118,118,119,119,120,120,121,121,122,122,123,123,125,125,131,131,132,132,135,135,136,136,137,137,138,138,139,139,140,140,142,142,143,143,145,145,146,146,147,147,149,149,150,150,152,152,156,156,157,157,158,158],"right_children":[2,4,6,8,10,12,14,-1,16,18,20,22,24,26,28,30,32,34,-1,36,38,40,42,44,46,48,50,52,54,-1,-1,56,58,60,-1,62,64,66,68,70,72,74,76,78,80,-1,82,84,86,88,90,92,-1,94,-1,96,-1,-1,98,100,102,104,106,108,110,112,114,-1,-1,116,118,120,122,124,126,128,130,132,134,136,138,-1,140,142,144,146,148,150,-1,152,154,156,-1,158,-1,-1,160,162,164,166,-1,168,170,172,174,176,178,180,182,-1,184,-1,186,-1,188,190,192,194,196,198,200,202,204,206,-1,208,-1,-1,-1,-1,-1,210,212,-1,-1,214,216,218,220,222,224,-1,226,228,-1,230,232,234,-1,236,238,-1,240,-1,-1,-1,242,244,246,-1,-1,-1,-1,-1,-1,-1,-1,-1,-1,-1,-1,-1,-1,-1,-1,-1,-1,-1,-1,-1,-1,-1,-1,-1,-1,-1,-1,-1,-1,-1,-1,-1,-1,-1,-1,-1,-1,-1,-1,-1,-1,-1,-1,-1,-1,-1,-1,-1,-1,-1,-1,-1,-1,-1,-1,-1,-1,-1,-1,-1,-1,-1,-1,-1,-1,-1,-1,-1,-1,-1,-1,-1,-1,-1,-1,-1,-1,-1,-1,-1,-1,-1,-1,-1,-1,-1,-1],"split_conditions":[7.088395E-1,5.157914E-1,9.5028967E-1,1E0,1.7299578E-1,1.7299578E-1,1.0857784E0,-1.1970767E-1,-4.298262E-2,1E0,1E0,1E0,2.2651933E-1,1.2547529E-1,1E0,1E0,1.7299578E-1,1E0,1.796991E-1,8.4E-1,1E0,1E0,1E0,2.236842E-1,1E0,1.1391364E-1,1E0,1.2483648E0,1.3178846E0,-1.1953687E-1,-3.541438E-2,1E0,1E0,1E0,1.5428104E-1,1E0,2.2651933E-1,1.418276E-1,1.914288E-1,8.484395E-1,9.10484E-1,1.3665594E-1,9.231919E-1,2.1337126E-1,7.998505E-1,2.524338E-1,7.5499904E-1,1E0,8.4E-1,1.6666512E-1,1E0,1.2547529E-1,2.704583E-1,1.7299578E-1,2.414428E-1,1E0,-1.1618226E-1,-1.1739389E-1,2.4822643E-1,1E0,1E0,1E0,2.074948E-1,2.236842E-1,1.0055426E-1,1.6253974E-1,2.236842E-1,2.602902E-1,7.018353E-2,1E0,1.3103458E-1,1E0,1E0,1E0,2.0616302E-1,2.5E-1,1.2547529E-1,2.079395E-1,1E0,1E0,8.353579E-1,4.2087603E-3,1.8622565E-1,9.2E-1,1E0,1E0,1.820041E-1,2.0319155E-1,2.6043376E-1,1.7299578E-1,1.6253974E-1,1.1391364E-1,2.642661E-1,1E0,2.3181064E-1,-1.1533809E-1,1E0,1.9061857E-1,1E0,7.2E-1,-1.1745749E-1,1E0,1.0783365E-1,6.9818723E-1,2.2651933E-1,5.9801906E-1,1.322644E-1,5.5690527E-1,1.5034965E-1,-6.0301092E-3,2.7331606E-1,-7.861845E-2,2.4822643E-1,2.458351E-1,2.2651933E-1,1.0783365E-1,1E0,9.860608E-2,1.0783365E-1,1E0,8.736685E-1,1E0,1E0,1.2605195E-1,-4.78298E-3,1E0,1.2722036E-1,-2.9739982E-2,-1.1720451E-1,-7.406917E-2,3.5653677E-2,1E0,1E0,3.0164024E-1,3.0533193E-2,1E0,1E0,1.547451E-1,1.4084508E-1,1.3452715E-1,1.49318E-1,2.365303E-1,1.0439171E0,1E0,2.3670934E-1,1.6253974E-1,1.4928225E-1,1.8621236E-1,1.9188264E-2,1E0,2.1156652E-1,-5.452716E-2,2.0319155E-1,5.6395013E-2,2.537564E-1,2.5601912E-1,1E0,1.6363636E-1,7.5E-1,6.9949605E-2,-6.8001285E-2,2.2354377E-2,1.5438041E-1,1.35877E-1,2.494704E-1,-9.346015E-3,-9.686057E-2,-5.527048E-2,-1.1569295E-1,1.2047633E-1,-5.0872713E-2,-1.1674094E-1,1.8929735E-2,-3.301445E-2,2.2242618E-1,-8.004465E-2,2.2433138E-2,2.286454E-2,1.6246396E-1,-1.2994311E-2,1.5092948E-1,1.8549431E-2,-1.0376986E-1,2.3659109E-1,1.4212231E-1,3.9100736E-2,1.598954E-1,-1.07384555E-1,2.1077363E-1,-1.7881198E-2,1.0274495E-1,-7.100797E-2,8.453445E-2,1.0442517E-1,-8.1269234E-2,8.973334E-2,1.834123E-1,6.675558E-2,-4.5866642E-2,-1.1235269E-1,-2.6487416E-2,5.271552E-2,-9.4589144E-2,2.3845671E-1,6.102509E-2,2.5074234E-2,2.006872E-1,-1.8611943E-2,-1.0625111E-1,2.2733544E-1,4.1069016E-2,-3.8445584E-2,1.4156038E-1,1.33817E-1,-6.1823536E-2,1.0137638E-2,-1.0501808E-1,3.640119E-2,1.4755373E-1,4.510311E-2,2.0843041E-1,6.907E-2,2.3618372E-1,8.070618E-2,-2.1299131E-2,1.5757121E-1,-2.7887989E-2,5.324169E-2,-9.7532846E-2,1.8590307E-2,1.3207287E-1,-1.5320952E-2,-1.0147808E-1,-1.0473718E-1,-1.2415289E-2,2.4233595E-1,1.7577308E-1,-4.2967945E-2,1.7465793E-1,5.0321113E-2,1.6797215E-1,2.2755854E-1,1.1122349E-2,-4.391099E-2,1.3439184E-1,4.3255053E-2,2.066236E-1],"split_indices":[30,30,30,12,19,19,30,0,30,11,12,14,19,19,7,10,19,3,0,28,1,13,9,19,7,19,7,30,30,0,0,9,1,12,0,13,19,27,24,30,30,17,30,19,30,0,30,13,28,19,13,19,0,19,0,1,0,0,19,9,1,14,19,19,27,23,19,0,0,12,21,9,1,7,21,29,19,19,7,14,30,0,23,28,1,13,17,24,0,19,23,19,0,13,0,0,5,30,9,28,0,9,19,30,19,30,27,30,24,0,19,0,19,0,19,19,1,21,19,0,30,9,0,24,0,7,0,0,0,0,0,7,12,0,0,13,9,23,18,23,27,0,30,9,0,23,21,25,0,13,24,0,23,0,0,0,13,20,29,0,0,0,0,0,0,0,0,0,0,0,0,0,0,0,0,0,0,0,0,0,0,0,0,0,0,0,0,0,0,0,0,0,0,0,0,0,0,0,0,0,0,0,0,0,0,0,0,0,0,0,0,0,0,0,0,0,0,0,0,0,0,0,0,0,0,0,0,0,0,0,0,0,0,0,0,0,0,0,0,0,0,0,0,0,0,0,0],"split_type":[0,0,0,0,0,0,0,0,0,0,0,0,0,0,0,0,0,0,0,0,0,0,0,0,0,0,0,0,0,0,0,0,0,0,0,0,0,0,0,0,0,0,0,0,0,0,0,0,0,0,0,0,0,0,0,0,0,0,0,0,0,0,0,0,0,0,0,0,0,0,0,0,0,0,0,0,0,0,0,0,0,0,0,0,0,0,0,0,0,0,0,0,0,0,0,0,0,0,0,0,0,0,0,0,0,0,0,0,0,0,0,0,0,0,0,0,0,0,0,0,0,0,0,0,0,0,0,0,0,0,0,0,0,0,0,0,0,0,0,0,0,0,0,0,0,0,0,0,0,0,0,0,0,0,0,0,0,0,0,0,0,0,0,0,0,0,0,0,0,0,0,0,0,0,0,0,0,0,0,0,0,0,0,0,0,0,0,0,0,0,0,0,0,0,0,0,0,0,0,0,0,0,0,0,0,0,0,0,0,0,0,0,0,0,0,0,0,0,0,0,0,0,0,0,0,0,0,0,0,0,0,0,0,0,0,0,0,0,0,0,0,0,0,0,0,0,0],"sum_hessian":[5.5675386E3,4.115387E3,1.4521512E3,3.689145E3,4.2624228E2,5.223868E2,9.297645E2,2.8673994E3,8.2174554E2,2.2389986E2,2.023424E2,2.7298816E2,2.4939859E2,2.9131134E2,6.384531E2,5.475914E2,2.7415417E2,2.2164865E2,2.2512035E0,1.5321294E2,4.912947E1,2.072744E2,6.571376E1,1.09828545E2,1.3957005E2,9.946444E1,1.9184691E2,5.9018976E2,4.8263374E1,5.4605304E2,1.5383412E0,1.6700931E2,1.0714486E2,2.2046265E2,1.1860015E0,7.92883E1,7.392464E1,2.8674025E1,2.0455446E1,1.2512194E2,8.215245E1,3.473039E1,3.0983376E1,6.79221E1,4.190645E1,1.2856071E2,1.1009344E1,5.6447647E1,4.301679E1,1.7815053E2,1.3696379E1,2.653958E2,3.2479398E2,2.0530476E1,2.7732899E1,5.4412773E1,1.1259653E2,4.8068466E1,5.9076397E1,1.705962E2,4.9866436E1,4.7364105E1,3.1924196E1,3.1727892E1,4.2196747E1,4.49753E0,2.4176495E1,1.9388496E1,1.0669503E0,6.933504E1,5.57869E1,6.787947E1,1.4272981E1,4.0273404E0,3.0703047E1,2.843028E1,2.553096E0,4.653286E1,2.1389233E1,1.6883554E1,2.5022896E1,2.1022058E0,8.907139E0,3.799042E1,1.8457224E1,2.8977226E1,1.4039563E1,5.7690624E1,1.2045991E2,8.228516E0,5.467863E0,1.1115584E2,1.5423996E2,1.3466303E1,7.064173E0,2.5205233E1,2.9207539E1,4.066803E1,1.8408365E1,7.902914E1,9.156708E1,2.8989431E1,2.0877005E1,3.528709E1,1.2077014E1,2.8665345E0,2.9057661E1,2.2941061E1,8.786831E0,1.5687357E0,4.062801E1,1.7949328E0,2.7025971E0,7.339739E0,1.6836756E1,3.3394714E1,3.5940327E1,2.813637E0,5.2973263E1,3.4993176E1,3.2886295E1,7.148061E0,7.12492E0,2.359776E0,1.6675646E0,2.9231491E1,1.4715569E0,1.3818747E0,2.7048405E1,1.5123477E0,1.0407482E0,3.6439537E1,1.0093323E1,2.033987E1,1.0493629E0,1.1536774E1,5.3467813E0,5.4151306E0,1.9607765E1,6.777031E0,2.1301076E0,3.4999138E1,2.9912863E0,9.492689E0,8.964535E0,2.2843311E1,6.1339164E0,1.2786789E1,1.252774E0,5.3852165E1,3.83846E0,2.1840174E0,6.044498E0,1.8063598E0,3.6615033E0,5.6943356E1,5.4212482E1,8.561868E0,4.904435E0,2.2354138E0,2.6972126E1,1.5915548E1,2.4752483E1,5.178536E0,1.3229829E1,3.6130104E0,7.541613E1,9.835514E0,1.9153917E1,3.1546614E0,1.7722343E1,3.2066525E1,3.2205646E0,5.8100033E0,6.26701E0,1.6840577E0,1.1824768E0,4.9688716E0,2.408879E1,4.205397E0,1.8735664E1,2.6702507E0,6.116581E0,2.5049484E1,1.5578526E1,1.5513277E0,1.1512694E0,3.2542198E0,1.3582537E1,5.4984202E0,2.7896296E1,1.8843742E1,1.7096582E1,1.2051414E0,1.6084955E0,6.650595E0,4.6322666E1,7.888248E0,2.7104929E1,2.5627392E1,7.258904E0,3.6471314E0,3.5009296E0,2.771191E0,4.3537292E0,1.1504148E0,1.2093612E0,1.6419174E1,1.2812316E1,3.4306557E1,2.1329806E0,8.15307E0,1.9402528E0,7.675144E0,3.8616295E0,2.0642664E0,3.2825148E0,2.5424395E0,2.872691E0,1.3876692E0,1.8220095E1,1.5947244E0,5.1823063E0,1.0448669E0,1.0852408E0,1.8146901E0,1.176596E0,5.685149E0,3.8075404E0,1.1373003E1,1.1470307E1,1.0675437E0,5.066373E0,1.1759635E1,1.0271542E0,3.5130672E1,1.8721493E1,1.3295689E0,2.508891E0,4.6437693E0,1.4007287E0,3.6417023E1,1.7795462E1,7.2100973E0,1.3517704E0,2.018388E0,2.8860471E0],"tree_param":{"num_deleted":"0","num_feature":"31","num_nodes":"247","size_leaf_vector":"1"}},{"base_weights":[-2.4424607E-1,-9.964494E-1,1.649395E0,-1.1239369E0,4.0937554E-2,1.0412433E0,2.0396552E0,-1.1747681E-1,-9.474887E-1,-8.891956E-1,9.774986E-1,2.630278E-1,1.8581461E0,1.7802588E0,2.1913342E0,-1.1711481E0,-5.139391E-1,-9.254517E-1,1.588505E-1,7.06965E-1,1.7639325E0,-1.8392926E-1,7.0981693E-1,1.5578668E0,2.0787818E0,1.2365382E0,2.085961E0,2.1983566E0,-7.815311E-2,-1.17296755E-1,-3.373971E-2,-1.1676697E-1,1.05684035E-1,-9.464414E-1,1.4044195E-1,1.8481885E-1,1.228973E0,1.4144119E0,2.1680284E-1,2.263405E-2,-6.6904014E-1,1.0003538E0,-4.1761893E-1,1.8083487E0,1.1102566E0,2.1359963E0,1.323103E0,1.9028366E0,2.9420438E-1,2.148859E0,1.0418295E0,2.2303503E0,1.7874695E0,-8.7608963E-1,1.249549E0,-1.0374027E0,-6.289582E-1,-4.6594247E-1,1.0514499E0,5.9693426E-1,1.6646228E0,3.845335E-1,1.5742116E0,3.7267756E-1,-6.327568E-1,-2.5944528E-1,-1.1295082E-1,1.4288305E0,2.6689476E-1,-6.011827E-1,5.430619E-1,1.52314E0,2.350762E0,2.1607947E-1,1.5938444E0,1.8761586E0,2.2636347E-1,-2.6404265E-2,1.4833952E0,9.520962E-1,1.9733316E0,-2.7168086E-1,1.4766407E0,1.9115473E0,2.2570983E-1,3.236407E-1,1.9511563E-1,2.0907743E0,2.3006871E-1,1.2202518E0,2.0530067E-1,-5.187848E-1,-1.0853549E0,9.7390836E-1,2.2153907E-1,-8.947158E-1,-1.15088776E-1,-9.434042E-1,-1.8709601E-1,-1.011294E0,9.3632436E-1,-4.083663E-1,1.1929808E0,1.0387225E0,-6.528617E-1,-2.42313E-2,1.7181761E0,-7.611271E-2,1.0952828E0,2.0702974E-1,1.2528628E0,7.159166E-1,2.8221318E-2,4.368616E-1,-8.0666643E-1,4.4253972E-1,-7.118375E-1,1.1222193E0,1.7760384E0,-3.74303E-1,9.504619E-1,2.530145E-1,-8.09233E-1,1.2048867E0,-7.372637E-2,1.8930569E0,6.594492E-2,2.5047994E-1,1.6022312E-2,6.036532E-1,-6.2489974E-1,1.6466191E0,1.7220667E-2,2.2356926E-1,1.0225476E0,4.3468657E-1,1.6837976E0,1.4784037E-1,-2.3074215E-2,2.3204604E-2,1.9958466E0,2.1109554E-1,-7.3742855E-1,4.4172508E-1,2.2166698E-1,1.6374811E0,2.137111E-1,-4.1996688E-1,1.3673021E0,2.234333E0,1.7436935E0,6.617957E-1,2.0743322E-1,-6.422955E-2,6.813025E-2,-1.1485314E-1,-3.7617978E-2,6.0069244E-2,1.738933E-1,-8.656114E-3,-9.3400694E-2,-5.2005734E-2,-1.1299485E-1,-5.5542108E-2,9.313255E-2,-1.1427875E-1,1.7344598E-2,-3.0748649E-2,1.88197E-1,-7.734448E-2,2.1064982E-2,7.124038E-2,1.672941E-1,1.3875403E-1,7.827494E-3,1.7051974E-2,-1.0099001E-1,8.791564E-2,1.8625495E-1,-1.4452097E-2,1.5926619E-1,-1.0306283E-1,1.7703347E-1,-1.6509589E-2,8.790318E-2,-6.7266494E-2,7.343029E-2,1.06542565E-1,-4.9499087E-2,-8.8166855E-2,5.831353E-2,2.103674E-1,-6.389039E-2,-7.912192E-2,-1.8010037E-3,1.6634016E-1,5.7837702E-2,2.3384881E-1,1.1414013E-1,6.0641523E-3,-9.142374E-2,2.6119044E-1,5.319587E-2,9.159362E-2,-8.003729E-2,-9.338411E-2,-1.7385723E-2,1.7339292E-1,2.9696465E-2,1.54363E-1,2.3515265E-1,-2.6984287E-2,1.0660905E-1,1.1524161E-1,-5.8562607E-2,9.418064E-3,-1.0100313E-1,1.9316684E-1,1.1677176E-1,1.765181E-2,1.7279153E-1,7.489906E-2,-9.203137E-4,2.0549022E-1,7.753649E-2,5.376484E-2,2.0234783E-1,1.0048989E-1,-4.1438576E-2,3.1327132E-2,-9.457056E-2,-1.0333983E-1,2.3598611E-1,1.7176859E-1,2.1580711E-2,3.5731055E-2,-6.389229E-2,1.6302001E-1,2.8628984E-2,1.3445732E-1,2.267065E-1,1.2140044E-1,2.403998E-1,1.106142E-3,1.4640832E-1],"categories":[],"categories_nodes":[],"categories_segments":[],"categories_sizes":[],"default_left":[0,0,0,0,0,0,0,0,0,0,0,0,0,0,0,0,0,0,0,0,0,0,0,0,0,0,0,0,0,0,0,0,0,0,0,0,0,0,0,0,0,0,0,0,0,0,0,0,0,0,0,0,0,0,0,0,0,0,0,0,0,0,0,0,0,0,0,0,0,0,0,0,0,0,0,0,0,0,0,0,0,0,0,0,0,0,0,0,0,0,0,0,0,0,0,0,0,0,0,0,0,0,0,0,0,0,0,0,0,0,0,0,0,0,0,0,0,0,0,0,0,0,0,0,0,0,0,0,0,0,0,0,0,0,0,0,0,0,0,0,0,0,0,0,0,0,0,0,0,0,0,0,0,0,0,0,0,0,0,0,0,0,0,0,0,0,0,0,0,0,0,0,0,0,0,0,0,0,0,0,0,0,0,0,0,0,0,0,0,0,0,0,0,0,0,0,0,0,0,0,0,0,0,0,0,0,0,0,0,0,0,0,0,0,0,0,0,0,0,0,0,0,0,0,0,0,0,0,0,0,0,0,0,0,0,0,0,0,0,0,0,0,0,0,0],"id":3,"left_children":[1,3,5,7,9,11,13,-1,15,17,19,21,23,25,27,29,31,33,-1,35,37,39,41,43,45,47,49,51,-1,-1,-1,-1,53,55,-1,57,59,61,-1,63,65,67,69,71,73,75,77,79,81,83,85,87,89,91,93,95,97,99,101,103,105,107,109,111,113,115,-1,117,119,121,123,125,127,129,131,133,-1,-1,135,137,139,141,143,145,-1,147,-1,149,-1,151,-1,153,155,157,-1,159,-1,161,163,165,167,169,171,173,175,-1,177,-1,179,-1,181,183,185,187,189,191,193,195,197,199,201,203,205,207,-1,209,211,-1,-1,213,215,217,-1,-1,219,221,223,-1,-1,-1,225,227,229,231,-1,233,-1,235,237,239,241,243,-1,-1,-1,-1,-1,-1,-1,-1,-1,-1,-1,-1,-1,-1,-1,-1,-1,-1,-1,-1,-1,-1,-1,-1,-1,-1,-1,-1,-1,-1,-1,-1,-1,-1,-1,-1,-1,-1,-1,-1,-1,-1,-1,-1,-1,-1,-1,-1,-1,-1,-1,-1,-1,-1,-1,-1,-1,-1,-1,-1,-1,-1,-1,-1,-1,-1,-1,-1,-1,-1,-1,-1,-1,-1,-1,-1,-1,-1,-1,-1,-1,-1,-1,-1,-1,-1,-1,-1,-1,-1,-1,-1,-1],"loss_changes":[7.618364E3,5.0627563E2,3.587705E2,2.9460938E1,3.6663922E2,3.7866785E2,3.25E1,0E0,7.382599E1,2.0441391E1,4.336685E1,6.1358177E1,1.6028381E1,5.5048706E1,1.3815186E1,3.7109375E-1,1.0665348E2,1.1538925E1,0E0,4.2753906E1,4.419632E0,1.5453677E1,5.07106E1,1.2249725E1,4.2923584E0,7.932654E1,1.22404785E1,3.616455E0,0E0,0E0,0E0,0E0,1.5375336E2,5.340027E0,0E0,4.5614414E1,2.067044E1,4.5454216E0,0E0,2.5247562E1,8.391081E0,3.807666E1,5.9985833E0,8.787201E0,2.050576E1,7.7526855E-1,4.008341E0,3.1043396E0,3.6455505E1,1.0026855E0,8.816873E0,4.1796875E-1,4.5463104E0,4.9505043E0,1.4667137E1,1.5571747E0,6.597189E0,3.6423004E1,7.640339E0,1.9264774E1,5.115654E0,5.3342905E0,1.6738358E0,8.456519E0,7.481963E0,8.465916E0,0E0,6.205902E0,2.0673626E1,5.088249E0,5.7058096E0,2.9649689E1,8.27388E0,6.2706137E0,2.0525436E0,1.4815826E1,0E0,0E0,2.0134716E0,4.7391067E0,2.2139893E0,8.539739E0,1.2496956E1,9.1278076E-1,0E0,7.777914E0,0E0,5.541504E0,0E0,6.923464E0,0E0,4.758531E0,1.6104164E0,1.3502766E1,0E0,2.3090515E0,0E0,1.6421852E0,9.380939E0,5.476452E0,1.6468042E1,1.0228024E0,6.1469917E0,8.352991E0,2.9372702E0,0E0,3.7993011E0,0E0,2.586413E0,0E0,2.4014723E1,5.299963E0,1.8718388E1,4.0469394E0,3.9872036E0,2.0520979E1,8.664999E-1,1.1874802E1,9.610275E0,5.841159E0,1.4407663E1,5.0234294E0,1.6060038E0,1.467679E0,0E0,3.4217072E0,4.3913307E0,0E0,0E0,9.084505E0,1.8108938E0,1.8267975E0,0E0,0E0,1.0650131E1,4.873578E-1,1.986721E0,0E0,0E0,0E0,1.6230469E0,9.892928E0,4.4981003E0,2.6730183E1,0E0,3.7912064E0,0E0,1.2809677E0,6.97618E-1,7.504883E-1,1.8057648E1,6.2411666E0,0E0,0E0,0E0,0E0,0E0,0E0,0E0,0E0,0E0,0E0,0E0,0E0,0E0,0E0,0E0,0E0,0E0,0E0,0E0,0E0,0E0,0E0,0E0,0E0,0E0,0E0,0E0,0E0,0E0,0E0,0E0,0E0,0E0,0E0,0E0,0E0,0E0,0E0,0E0,0E0,0E0,0E0,0E0,0E0,0E0,0E0,0E0,0E0,0E0,0E0,0E0,0E0,0E0,0E0,0E0,0E0,0E0,0E0,0E0,0E0,0E0,0E0,0E0,0E0,0E0,0E0,0E0,0E0,0E0,0E0,0E0,0E0,0E0,0E0,0E0,0E0,0E0,0E0,0E0,0E0,0E0,0E0,0E0,0E0,0E0,0E0,0E0,0E0,0E0,0E0,0E0,0E0,0E0],"parents":[2147483647,0,0,1,1,2,2,3,3,4,4,5,5,6,6,8,8,9,9,10,10,11,11,12,12,13,13,14,14,15,15,16,16,17,17,19,19,20,20,21,21,22,22,23,23,24,24,25,25,26,26,27,27,32,32,33,33,35,35,36,36,37,37,39,39,40,40,41,41,42,42,43,43,44,44,45,45,46,46,47,47,48,48,49,49,50,50,51,51,52,52,53,53,54,54,55,55,56,56,57,57,58,58,59,59,60,60,61,61,62,62,63,63,64,64,65,65,67,67,68,68,69,69,70,70,71,71,72,72,73,73,74,74,75,75,78,78,79,79,80,80,81,81,82,82,83,83,85,85,87,87,89,89,91,91,92,92,93,93,95,95,97,97,98,98,99,99,100,100,101,101,102,102,103,103,104,104,106,106,108,108,110,110,111,111,112,112,113,113,114,114,115,115,116,116,117,117,118,118,119,119,120,120,121,121,122,122,123,123,125,125,126,126,129,129,130,130,131,131,134,134,135,135,136,136,140,140,141,141,142,142,143,143,145,145,147,147,148,148,149,149,150,150,151,151],"right_children":[2,4,6,8,10,12,14,-1,16,18,20,22,24,26,28,30,32,34,-1,36,38,40,42,44,46,48,50,52,-1,-1,-1,-1,54,56,-1,58,60,62,-1,64,66,68,70,72,74,76,78,80,82,84,86,88,90,92,94,96,98,100,102,104,106,108,110,112,114,116,-1,118,120,122,124,126,128,130,132,134,-1,-1,136,138,140,142,144,146,-1,148,-1,150,-1,152,-1,154,156,158,-1,160,-1,162,164,166,168,170,172,174,176,-1,178,-1,180,-1,182,184,186,188,190,192,194,196,198,200,202,204,206,208,-1,210,212,-1,-1,214,216,218,-1,-1,220,222,224,-1,-1,-1,226,228,230,232,-1,234,-1,236,238,240,242,244,-1,-1,-1,-1,-1,-1,-1,-1,-1,-1,-1,-1,-1,-1,-1,-1,-1,-1,-1,-1,-1,-1,-1,-1,-1,-1,-1,-1,-1,-1,-1,-1,-1,-1,-1,-1,-1,-1,-1,-1,-1,-1,-1,-1,-1,-1,-1,-1,-1,-1,-1,-1,-1,-1,-1,-1,-1,-1,-1,-1,-1,-1,-1,-1,-1,-1,-1,-1,-1,-1,-1,-1,-1,-1,-1,-1,-1,-1,-1,-1,-1,-1,-1,-1,-1,-1,-1,-1,-1,-1,-1,-1,-1],"split_conditions":[7.088395E-1,5.157914E-1,9.755186E-1,1E0,1.7299578E-1,1.7299578E-1,1.1354887E0,-1.1747681E-1,-4.298262E-2,1E0,1E0,8.484395E-1,2.2651933E-1,1.2547529E-1,9.6E-1,1E0,1E0,1E0,1.588505E-1,8.4E-1,1E0,1E0,1E0,2.236842E-1,1E0,1.1391364E-1,1E0,1E0,-7.815311E-2,-1.17296755E-1,-3.373971E-2,-1.1676697E-1,1.7299578E-1,1E0,1.4044195E-1,1E0,2.2651933E-1,1.418276E-1,2.1680284E-1,1E0,1E0,1E0,1.8292682E-1,2.1337126E-1,7.998505E-1,2.4822643E-1,7.3033077E-1,9.8860025E-1,1E0,1.6666512E-1,1.6342412E-1,1.2483648E0,1.3178846E0,1E0,3.8871238E-1,1E0,1E0,1E0,2.074948E-1,2.236842E-1,9.423361E-2,1.6253974E-1,2.236842E-1,1E0,1.4084508E-1,1E0,-1.1295082E-1,1.2547529E-1,1E0,1.3306452E-1,1E0,2.079395E-1,9.2E-1,1E0,1E0,2.3583663E-1,2.2636347E-1,-2.6404265E-2,1.418276E-1,1E0,9.677601E-2,1E0,1.0713885E0,1.0577462E0,2.2570983E-1,2.236842E-1,1.9511563E-1,1E0,2.3006871E-1,1.7299578E-1,2.0530067E-1,1.6666512E-1,4.4477668E-1,2.4822643E-1,2.2153907E-1,7.2E-1,-1.15088776E-1,1E0,1.4634146E-1,6.9818723E-1,2.2651933E-1,5.9801906E-1,1.4532462E-1,1E0,1.5034965E-1,-2.42313E-2,5.4643995E-1,-7.611271E-2,2.2672065E-1,2.0702974E-1,2.2651933E-1,1.0783365E-1,1E0,1E0,1.730769E-1,1E0,7.5E-1,1.1391364E-1,1.5788005E-1,1E0,1.0783365E-1,1E0,1.784188E-1,1E0,-7.372637E-2,8.736685E-1,1E0,2.5047994E-1,1.6022312E-2,1E0,1E0,1.7039801E-1,1.7220667E-2,2.2356926E-1,8.484395E-1,1.4782673E-1,2.936803E-1,1.4784037E-1,-2.3074215E-2,2.3204604E-2,1.01014115E-1,5E-1,1.0024295E0,1E0,2.2166698E-1,2.0319155E-1,2.137111E-1,1.610124E-1,2.7102804E-1,1.0783365E-1,1E0,1E0,2.0743322E-1,-6.422955E-2,6.813025E-2,-1.1485314E-1,-3.7617978E-2,6.0069244E-2,1.738933E-1,-8.656114E-3,-9.3400694E-2,-5.2005734E-2,-1.1299485E-1,-5.5542108E-2,9.313255E-2,-1.1427875E-1,1.7344598E-2,-3.0748649E-2,1.88197E-1,-7.734448E-2,2.1064982E-2,7.124038E-2,1.672941E-1,1.3875403E-1,7.827494E-3,1.7051974E-2,-1.0099001E-1,8.791564E-2,1.8625495E-1,-1.4452097E-2,1.5926619E-1,-1.0306283E-1,1.7703347E-1,-1.6509589E-2,8.790318E-2,-6.7266494E-2,7.343029E-2,1.06542565E-1,-4.9499087E-2,-8.8166855E-2,5.831353E-2,2.103674E-1,-6.389039E-2,-7.912192E-2,-1.8010037E-3,1.6634016E-1,5.7837702E-2,2.3384881E-1,1.1414013E-1,6.0641523E-3,-9.142374E-2,2.6119044E-1,5.319587E-2,9.159362E-2,-8.003729E-2,-9.338411E-2,-1.7385723E-2,1.7339292E-1,2.9696465E-2,1.54363E-1,2.3515265E-1,-2.6984287E-2,1.0660905E-1,1.1524161E-1,-5.8562607E-2,9.418064E-3,-1.0100313E-1,1.9316684E-1,1.1677176E-1,1.765181E-2,1.7279153E-1,7.489906E-2,-9.203137E-4,2.0549022E-1,7.753649E-2,5.376484E-2,2.0234783E-1,1.0048989E-1,-4.1438576E-2,3.1327132E-2,-9.457056E-2,-1.0333983E-1,2.3598611E-1,1.7176859E-1,2.1580711E-2,3.5731055E-2,-6.389229E-2,1.6302001E-1,2.8628984E-2,1.3445732E-1,2.267065E-1,1.2140044E-1,2.403998E-1,1.106142E-3,1.4640832E-1],"split_indices":[30,30,30,12,19,19,30,0,30,11,12,30,19,19,28,10,1,3,0,28,1,13,14,19,7,19,7,7,0,0,0,0,19,12,0,13,19,27,0,14,9,13,25,19,30,19,30,30,12,19,22,30,30,9,30,9,1,14,19,19,27,23,19,12,18,6,0,19,1,25,7,19,28,14,7,19,0,0,24,13,22,9,30,30,0,19,0,13,0,19,0,19,30,19,0,28,0,9,19,30,19,30,27,7,24,0,30,0,19,0,19,19,1,9,21,7,29,19,19,9,19,9,23,9,0,30,12,0,0,13,9,24,0,0,30,21,19,0,0,0,24,29,30,1,0,24,0,26,19,19,1,13,0,0,0,0,0,0,0,0,0,0,0,0,0,0,0,0,0,0,0,0,0,0,0,0,0,0,0,0,0,0,0,0,0,0,0,0,0,0,0,0,0,0,0,0,0,0,0,0,0,0,0,0,0,0,0,0,0,0,0,0,0,0,0,0,0,0,0,0,0,0,0,0,0,0,0,0,0,0,0,0,0,0,0,0,0,0,0,0,0,0,0,0,0],"split_type":[0,0,0,0,0,0,0,0,0,0,0,0,0,0,0,0,0,0,0,0,0,0,0,0,0,0,0,0,0,0,0,0,0,0,0,0,0,0,0,0,0,0,0,0,0,0,0,0,0,0,0,0,0,0,0,0,0,0,0,0,0,0,0,0,0,0,0,0,0,0,0,0,0,0,0,0,0,0,0,0,0,0,0,0,0,0,0,0,0,0,0,0,0,0,0,0,0,0,0,0,0,0,0,0,0,0,0,0,0,0,0,0,0,0,0,0,0,0,0,0,0,0,0,0,0,0,0,0,0,0,0,0,0,0,0,0,0,0,0,0,0,0,0,0,0,0,0,0,0,0,0,0,0,0,0,0,0,0,0,0,0,0,0,0,0,0,0,0,0,0,0,0,0,0,0,0,0,0,0,0,0,0,0,0,0,0,0,0,0,0,0,0,0,0,0,0,0,0,0,0,0,0,0,0,0,0,0,0,0,0,0,0,0,0,0,0,0,0,0,0,0,0,0,0,0,0,0,0,0,0,0,0,0,0,0,0,0,0,0,0,0,0,0,0,0],"sum_hessian":[5.3463066E3,3.8267114E3,1.5195952E3,3.4078298E3,4.1888165E2,5.954147E2,9.2418054E2,2.6412747E3,7.665551E2,2.101874E2,2.0869426E2,3.056048E2,2.8980988E2,3.457049E2,5.7847565E2,5.045611E2,2.6199402E2,2.0777354E2,2.413852E0,1.5669133E2,5.2002934E1,1.530678E2,1.52537E2,1.26164345E2,1.6364552E2,1.2623277E2,2.194721E2,5.773724E2,1.1033155E0,5.030565E2,1.5046325E0,1.2705779E2,1.3493623E2,2.0650691E2,1.2666323E0,7.901224E1,7.767909E1,3.0297478E1,2.1705454E1,1.0802388E2,4.504392E1,1.2137241E2,3.1164595E1,7.89462E1,4.7218147E1,1.5042949E2,1.3216043E1,7.334983E1,5.288294E1,2.0600449E2,1.3467624E1,5.3155505E2,4.581733E1,7.27389E1,6.219734E1,1.5875488E2,4.7752033E1,4.5390465E1,3.3621773E1,3.266258E1,4.501651E1,4.527159E0,2.5770319E1,7.069638E1,3.732749E1,2.466626E1,2.0377659E1,7.6016525E1,4.535589E1,2.647924E1,4.685354E0,5.4236137E1,2.4710064E1,1.7081135E1,3.0137012E1,5.472433E1,9.5705154E1,1.1529337E0,1.206311E1,6.064608E0,6.7285225E1,3.6287067E1,1.6595871E1,7.0373344E1,1.3563115E2,8.282218E0,5.185406E0,1.884073E2,3.4314774E2,1.6393774E1,2.9423557E1,2.8151455E1,4.458744E1,4.9950394E1,1.2246946E1,7.426457E1,8.449031E1,2.7235294E1,2.0516737E1,3.288145E1,1.2509016E1,2.80494E0,3.0816833E1,2.4256924E1,8.405653E0,1.133403E0,4.388311E1,1.7061412E0,2.821018E0,7.991236E0,1.7779083E1,3.4870605E1,3.582578E1,5.0088596E0,3.2318634E1,9.675066E0,1.4991194E1,4.2615707E1,3.3400818E1,2.363669E1,2.1719196E1,5.143858E0,2.1335382E1,3.1275735E0,1.5577807E0,4.301694E1,1.1219194E1,2.2952589E1,1.757475E0,1.18856945E1,5.19544E0,2.8905706E1,1.2313061E0,3.7366688E1,1.7357643E1,2.4437897E0,9.61932E0,4.0241656E0,2.0404422E0,1.0032257E0,6.6282E1,1.8086277E1,1.820079E1,7.585127E0,9.010743E0,3.5499702E1,3.487364E1,5.1853E0,3.0969179E0,1.2943373E2,5.897357E1,1.0985539E1,5.4082346E0,2.594594E1,2.2055142E0,4.0371437E1,4.2160044E0,3.4772087E1,1.5178307E1,3.5917277E0,7.0672844E1,9.488891E0,1.7746405E1,1.5812622E1,4.7041154E0,2.9628424E1,3.2530267E0,5.6942234E0,6.814792E0,1.6074413E0,1.1974986E0,1.6639874E1,1.4176958E1,1.7468128E1,6.788797E0,2.7004454E0,5.7052073E0,7.4833527E0,3.6399757E1,1.0108166E0,1.8102013E0,3.1014404E0,1.4677642E1,5.445642E0,2.9424965E1,1.8002785E1,1.7822992E1,2.905599E0,2.1032605E0,3.1010721E1,1.3079121E0,3.4423118E0,6.2327547E0,1.3326161E1,1.6650319E0,2.032827E1,2.228744E1,1.6284153E1,1.7116663E1,1.3582768E1,1.0053922E1,3.3155441E0,1.8403652E1,3.2371361E0,1.906722E0,1.7444475E1,3.8909085E0,1.4012773E0,1.7262962E0,2.6889662E1,1.612728E1,8.945903E0,2.2732916E0,8.1541605E0,3.7315347E0,2.0755787E0,3.1198611E0,1.6218613E1,1.2687095E1,8.460378E0,8.897266E0,1.0283285E0,1.4154613E0,5.933423E0,3.6858974E0,1.6130825E0,6.4668915E1,7.7033243E0,1.0382953E1,2.9276254E0,1.5273164E1,4.548442E0,3.036685E0,3.3406815E1,2.0928853E0,1.0007675E0,4.184532E0,2.0824442E0,1.0144737E0,6.085628E0,1.233481E2,3.429835E1,2.467522E1,6.625441E0,4.3600984E0],"tree_param":{"num_deleted":"0","num_feature":"31","num_nodes":"245","size_leaf_vector":"1"}},{"base_weights":[-2.3333068E-1,-9.709094E-1,1.4561365E0,-1.1022171E0,3.672853E-2,8.546647E-1,1.7552633E0,-1.1553166E-1,-9.2024946E-1,-8.5608196E-1,8.6698496E-1,9.38156E-2,1.6030785E0,1.4656849E0,1.8964809E0,-1.15146E0,-4.8806456E-1,-8.928658E-1,1.4217871E-1,6.289633E-1,1.5459328E0,3.0183098E-1,-6.309941E-1,1.3296564E0,1.8107512E0,8.292876E-1,1.7769449E0,1.9016793E0,-7.5202644E-2,-1.1534037E-1,-3.214434E-2,-1.1475517E-1,9.581155E-2,-9.144188E-1,1.286116E-1,2.9671693E-1,1.2652967E0,1.238635E0,1.9057549E0,6.9517726E-1,-3.7982264E-1,-2.40112E-1,-1.0632617E0,1.5695632E0,8.9506865E-1,1.8582009E0,1.1086811E0,1.429432E0,-4.3018024E-2,1.8420137E0,8.6319095E-1,1.9326191E0,1.493925E0,-8.425379E-1,1.0885454E0,-1.0090964E0,-5.944284E-1,-2.4001318E-1,8.834652E-1,2.0456526E0,9.876023E-1,-1.3044468E-2,1.3193711E0,1.9552729E-1,5.208082E-2,3.30132E-1,1.1579199E0,3.569324E-1,-5.964346E-1,7.376485E-1,-4.3735328E-1,-1.0956208E0,-1.6434727E-2,1.6509631E0,1.254271E-1,1.8945594E-1,1.3459662E0,5.0993007E-2,1.8694055E-1,1.0278882E-3,1.353206E0,1.6871895E0,8.29E-1,2.8559604E-1,-7.451304E-1,1.985369E-1,1.6700165E0,-1.9449878E-1,1.158335E0,1.8123877E0,2.025907E-1,7.70943E-1,1.6985545E0,-4.847416E-1,-1.0607163E0,5.0446266E-1,1.4429235E0,-8.604522E-1,-1.1298058E-1,-9.1129094E-1,-1.7009622E-1,-6.922225E-1,6.313013E-1,3.1288278E-1,1.3492464E0,2.1441923E-1,5.3052135E-2,2.861126E-1,1.3353603E0,8.2293236E-1,1.6070153E0,6.233592E-1,2.4343781E-2,4.0922546E-1,1.3531653E0,-1.558452E-1,1.4745036E0,-6.8697405E-1,2.832392E-1,2.1509507E-1,-4.1763803E-1,5.3773116E-2,-1.0237796E0,-2.492692E-2,-1.12989664E-1,1.3641502E0,2.1529682E-1,-4.5231035E-1,1.1571669E-1,5.347377E-1,-5.928153E-1,1.4512168E0,6.292612E-1,1.6578624E0,3.5981095E-1,1.9151736E0,1.1431869E0,-2.0851E-1,1.8658194E-1,5.8111775E-1,-8.9302194E-1,-9.449114E-1,1.2753785E-1,2.462409E-2,1.6867827E0,-8.369147E-2,8.259382E-2,1.4597151E0,4.187672E-1,1.5678918E0,1.9785868E-1,2.4928898E-1,1.7362683E-1,8.895871E-1,1.7965943E-1,6.8372406E-2,-6.1295684E-2,-1.1274653E-1,-3.53643E-2,1.663012E-1,1.7905239E-2,4.4324618E-2,1.6322874E-1,-8.015222E-3,-9.007218E-2,-4.888281E-2,-1.10560276E-1,1.1224768E-1,-4.679051E-2,-9.828272E-2,7.447184E-2,7.878508E-2,-8.1708014E-2,7.096535E-2,-7.4248366E-2,1.5563351E-1,3.459178E-2,6.558197E-2,-7.351752E-2,4.041051E-3,1.391008E-1,1.7185359E-1,-1.0356915E-1,3.945319E-2,1.6841428E-1,9.757577E-2,2.5362018E-2,-6.366279E-2,6.425682E-2,6.881364E-2,-6.5606244E-2,5.7415236E-2,1.4625831E-1,3.837246E-2,-9.666191E-2,5.2042153E-2,1.851977E-1,-9.2231646E-2,-3.792163E-2,8.010166E-2,-7.190938E-2,2.7766014E-2,-7.860494E-2,2.205921E-1,-5.2797735E-2,-1.0914942E-1,-1.6197057E-2,1.6304448E-1,1.6524255E-2,-7.9716206E-2,1.5748607E-2,1.0048621E-1,-5.5468358E-2,8.751003E-3,-9.733223E-2,3.5433143E-3,1.53682E-1,1.1819404E-1,-2.7643759E-2,1.6963065E-2,1.9050322E-1,-2.8035587E-2,7.956044E-2,1.2911974E-1,2.194988E-1,1.8443026E-1,6.135263E-2,3.479934E-2,-9.931582E-2,1.3512151E-2,1.152881E-1,-1.3273723E-2,-1.0019121E-1,-1.2159913E-2,-1.0833599E-1,8.119804E-2,-6.7825146E-2,1.4384826E-1,1.822849E-1,2.5075404E-2,1.5824978E-1,7.62863E-2,-3.9369337E-2,1.9244646E-1,1.1634314E-1,-1.8254744E-2,1.3172555E-1,1.5081586E-1,2.7227078E-2],"categories":[],"categories_nodes":[],"categories_segments":[],"categories_sizes":[],"default_left":[0,0,0,0,0,0,0,0,0,0,0,0,0,0,0,0,0,0,0,0,0,0,0,0,0,0,0,0,0,0,0,0,0,0,0,0,0,0,0,0,0,0,0,0,0,0,0,0,0,0,0,0,0,0,0,0,0,0,0,0,0,0,0,0,0,0,0,0,0,0,0,0,0,0,0,0,0,0,0,0,0,0,0,0,0,0,0,0,0,0,0,0,0,0,0,0,0,0,0,0,0,0,0,0,0,0,0,0,0,0,0,0,0,0,0,0,0,0,0,0,0,0,0,0,0,0,0,0,0,0,0,0,0,0,0,0,0,0,0,0,0,0,0,0,0,0,0,0,0,0,0,0,0,0,0,0,0,0,0,0,0,0,0,0,0,0,0,0,0,0,0,0,0,0,0,0,0,0,0,0,0,0,0,0,0,0,0,0,0,0,0,0,0,0,0,0,0,0,0,0,0,0,0,0,0,0,0,0,0,0,0,0,0,0,0,0,0,0,0,0,0,0,0,0,0,0,0,0,0,0,0,0,0,0,0,0,0,0,0,0,0,0,0,0,0,0,0,0,0],"id":4,"left_children":[1,3,5,7,9,11,13,-1,15,17,19,21,23,25,27,29,31,33,-1,35,37,39,41,43,45,47,49,51,-1,-1,-1,-1,53,55,-1,57,59,61,63,65,67,69,71,73,75,77,79,81,83,85,87,89,91,93,95,97,99,101,103,105,107,-1,109,-1,-1,111,113,115,117,119,121,123,-1,125,127,129,131,-1,-1,-1,133,135,137,139,141,-1,143,145,147,149,-1,151,153,155,157,159,161,163,-1,165,167,169,171,173,175,-1,-1,177,179,181,183,185,187,189,191,193,195,197,199,-1,201,203,205,-1,-1,207,-1,209,-1,211,213,215,217,219,221,223,225,227,-1,229,231,233,235,-1,237,-1,-1,239,241,243,-1,245,-1,247,-1,-1,-1,-1,-1,-1,-1,-1,-1,-1,-1,-1,-1,-1,-1,-1,-1,-1,-1,-1,-1,-1,-1,-1,-1,-1,-1,-1,-1,-1,-1,-1,-1,-1,-1,-1,-1,-1,-1,-1,-1,-1,-1,-1,-1,-1,-1,-1,-1,-1,-1,-1,-1,-1,-1,-1,-1,-1,-1,-1,-1,-1,-1,-1,-1,-1,-1,-1,-1,-1,-1,-1,-1,-1,-1,-1,-1,-1,-1,-1,-1,-1,-1,-1,-1,-1,-1,-1,-1,-1,-1,-1,-1,-1,-1],"loss_changes":[6.359853E3,4.700774E2,2.7756494E2,2.9305908E1,3.050556E2,2.9431833E2,3.9543457E1,0E0,7.087384E1,1.7886307E1,3.348427E1,3.9013573E1,1.2391663E1,6.66015E1,1.0961426E1,3.793335E-1,9.671858E1,1.0370651E1,0E0,3.335792E1,3.6833038E0,5.409095E1,9.501448E0,1.0717545E1,2.7823486E0,6.0135742E1,1.2079956E1,5.833008E0,0E0,0E0,0E0,0E0,1.2574063E2,5.2911377E0,0E0,3.363543E1,9.77372E0,3.746582E0,5.8104706E-1,2.1180569E1,1.2038926E1,6.4197693E0,6.090584E-1,8.443359E0,1.3642979E1,1.0813293E0,3.1236153E0,9.12709E0,1.12280445E1,1.9547119E0,5.583929E0,3.4958496E0,6.5543823E0,4.9073067E0,1.2839729E1,1.6944885E0,6.141533E0,2.2586416E1,1.3109787E1,8.557701E-1,9.881939E0,0E0,3.0510445E0,0E0,0E0,6.508558E0,7.616684E0,1.023682E1,4.7853584E0,1.017131E1,7.8128676E0,4.728737E-1,0E0,7.081131E0,3.5089793E0,5.231448E0,1.0848808E0,0E0,0E0,0E0,2.292801E0,3.592331E0,2.4477516E1,1.209806E1,2.8224916E0,0E0,2.0544434E0,3.7075505E0,2.4121246E0,8.629089E0,0E0,6.3939714E0,1.6216125E0,4.636243E0,1.5977211E0,9.613562E0,6.8975983E0,2.1524048E0,0E0,1.6415405E0,8.704978E0,1.6384815E1,5.1173463E0,1.06544285E1,5.223507E0,0E0,0E0,6.2279778E0,1.9511719E0,2.3894484E1,1.0508232E0,4.58654E0,1.5387777E1,4.3124027E0,2.902092E0,6.0030885E0,1.0485964E0,3.4566002E0,3.7350779E0,0E0,1.2332208E0,2.0707607E1,5.4256344E-1,0E0,0E0,1.4738991E1,0E0,9.519311E-1,0E0,7.2917137E0,1.6502559E0,2.6519089E0,2.9082801E0,2.2624512E0,1.2044728E0,2.6429138E0,4.9022484E0,5.625827E0,0E0,6.7765923E0,4.5137596E-1,1.3193054E0,2.6289182E0,0E0,8.269043E-1,0E0,0E0,9.7401047E-1,1.7902853E0,1.5304901E1,0E0,4.8378515E0,0E0,2.0214248E0,0E0,0E0,0E0,0E0,0E0,0E0,0E0,0E0,0E0,0E0,0E0,0E0,0E0,0E0,0E0,0E0,0E0,0E0,0E0,0E0,0E0,0E0,0E0,0E0,0E0,0E0,0E0,0E0,0E0,0E0,0E0,0E0,0E0,0E0,0E0,0E0,0E0,0E0,0E0,0E0,0E0,0E0,0E0,0E0,0E0,0E0,0E0,0E0,0E0,0E0,0E0,0E0,0E0,0E0,0E0,0E0,0E0,0E0,0E0,0E0,0E0,0E0,0E0,0E0,0E0,0E0,0E0,0E0,0E0,0E0,0E0,0E0,0E0,0E0,0E0,0E0,0E0,0E0,0E0,0E0,0E0,0E0,0E0,0E0,0E0,0E0,0E0,0E0,0E0,0E0,0E0,0E0,0E0,0E0,0E0],"parents":[2147483647,0,0,1,1,2,2,3,3,4,4,5,5,6,6,8,8,9,9,10,10,11,11,12,12,13,13,14,14,15,15,16,16,17,17,19,19,20,20,21,21,22,22,23,23,24,24,25,25,26,26,27,27,32,32,33,33,35,35,36,36,37,37,38,38,39,39,40,40,41,41,42,42,43,43,44,44,45,45,46,46,47,47,48,48,49,49,50,50,51,51,52,52,53,53,54,54,55,55,56,56,57,57,58,58,59,59,60,60,62,62,65,65,66,66,67,67,68,68,69,69,70,70,71,71,73,73,74,74,75,75,76,76,80,80,81,81,82,82,83,83,84,84,86,86,87,87,88,88,89,89,91,91,92,92,93,93,94,94,95,95,96,96,97,97,99,99,100,100,101,101,102,102,103,103,104,104,107,107,108,108,109,109,110,110,111,111,112,112,113,113,114,114,115,115,116,116,117,117,118,118,120,120,121,121,122,122,125,125,127,127,129,129,130,130,131,131,132,132,133,133,134,134,135,135,136,136,137,137,139,139,140,140,141,141,142,142,144,144,147,147,148,148,149,149,151,151,153,153],"right_children":[2,4,6,8,10,12,14,-1,16,18,20,22,24,26,28,30,32,34,-1,36,38,40,42,44,46,48,50,52,-1,-1,-1,-1,54,56,-1,58,60,62,64,66,68,70,72,74,76,78,80,82,84,86,88,90,92,94,96,98,100,102,104,106,108,-1,110,-1,-1,112,114,116,118,120,122,124,-1,126,128,130,132,-1,-1,-1,134,136,138,140,142,-1,144,146,148,150,-1,152,154,156,158,160,162,164,-1,166,168,170,172,174,176,-1,-1,178,180,182,184,186,188,190,192,194,196,198,200,-1,202,204,206,-1,-1,208,-1,210,-1,212,214,216,218,220,222,224,226,228,-1,230,232,234,236,-1,238,-1,-1,240,242,244,-1,246,-1,248,-1,-1,-1,-1,-1,-1,-1,-1,-1,-1,-1,-1,-1,-1,-1,-1,-1,-1,-1,-1,-1,-1,-1,-1,-1,-1,-1,-1,-1,-1,-1,-1,-1,-1,-1,-1,-1,-1,-1,-1,-1,-1,-1,-1,-1,-1,-1,-1,-1,-1,-1,-1,-1,-1,-1,-1,-1,-1,-1,-1,-1,-1,-1,-1,-1,-1,-1,-1,-1,-1,-1,-1,-1,-1,-1,-1,-1,-1,-1,-1,-1,-1,-1,-1,-1,-1,-1,-1,-1,-1,-1,-1,-1,-1,-1],"split_conditions":[7.088395E-1,5.157914E-1,9.3739486E-1,1E0,1.7299578E-1,1.7299578E-1,1.0857784E0,-1.1553166E-1,-4.298262E-2,1E0,1E0,1E0,2.2651933E-1,1.2547529E-1,9.6E-1,1E0,1E0,1E0,1.4217871E-1,1E0,1E0,1E0,1E0,2.236842E-1,1E0,1.1391364E-1,9.2E-1,1E0,-7.5202644E-2,-1.1534037E-1,-3.214434E-2,-1.1475517E-1,1.7299578E-1,1E0,1.286116E-1,8.4E-1,1E0,5.270043E-1,1.914288E-1,8.484395E-1,1E0,1.0783365E-1,9.231919E-1,1E0,7.998505E-1,1.08029194E-1,7.5499904E-1,1E0,8.4E-1,1E0,1.7299578E-1,1.2483648E0,1.2079985E0,1E0,1.547451E-1,1E0,1E0,1E0,2.2651933E-1,6.9818723E-1,2.2651933E-1,-1.3044468E-2,2.2651933E-1,1.9552729E-1,5.208082E-2,1E0,1.4107199E-1,8.871239E-1,1.6923077E-1,1E0,1E0,2.5E-1,-1.6434727E-2,2.1337126E-1,1E0,1E0,2.0159398E-1,5.0993007E-2,1.8694055E-1,1.0278882E-3,1.8326546E-1,1E0,1E0,1E0,1.8334348E-1,1.985369E-1,9.879679E-2,1.0439171E0,8.75E-1,1.2547529E-1,2.025907E-1,2.1337126E-1,1.1391364E-1,1E0,4.4477668E-1,1E0,1.3373609E-1,7.2E-1,-1.1298058E-1,1E0,1.0783365E-1,1E0,2.936803E-1,2.236842E-1,2.936803E-1,2.1441923E-1,5.3052135E-2,2.236842E-1,1.126491E-1,2.236842E-1,1.2091503E-1,1E0,1E0,1.7249696E-1,1.0783365E-1,1E0,1E0,1E0,1E0,2.1509507E-1,8.4E-1,1E0,1.862663E-1,-2.492692E-2,-1.12989664E-1,2.079395E-1,2.1529682E-1,1.8334348E-1,1.1571669E-1,1E0,1E0,1.4084508E-1,8.4E-1,1E0,1.8334348E-1,1.0783365E-1,1.0783365E-1,1E0,1.8658194E-1,1.5589353E-1,1.4928225E-1,1.1650152E-1,1.6363636E-1,2.462409E-2,1.7299578E-1,-8.369147E-2,8.259382E-2,1.084525E-1,2.7102804E-1,1.1391364E-1,1.9785868E-1,1.6342412E-1,1.7362683E-1,1.7648114E-1,1.7965943E-1,6.8372406E-2,-6.1295684E-2,-1.1274653E-1,-3.53643E-2,1.663012E-1,1.7905239E-2,4.4324618E-2,1.6322874E-1,-8.015222E-3,-9.007218E-2,-4.888281E-2,-1.10560276E-1,1.1224768E-1,-4.679051E-2,-9.828272E-2,7.447184E-2,7.878508E-2,-8.1708014E-2,7.096535E-2,-7.4248366E-2,1.5563351E-1,3.459178E-2,6.558197E-2,-7.351752E-2,4.041051E-3,1.391008E-1,1.7185359E-1,-1.0356915E-1,3.945319E-2,1.6841428E-1,9.757577E-2,2.5362018E-2,-6.366279E-2,6.425682E-2,6.881364E-2,-6.5606244E-2,5.7415236E-2,1.4625831E-1,3.837246E-2,-9.666191E-2,5.2042153E-2,1.851977E-1,-9.2231646E-2,-3.792163E-2,8.010166E-2,-7.190938E-2,2.7766014E-2,-7.860494E-2,2.205921E-1,-5.2797735E-2,-1.0914942E-1,-1.6197057E-2,1.6304448E-1,1.6524255E-2,-7.9716206E-2,1.5748607E-2,1.0048621E-1,-5.5468358E-2,8.751003E-3,-9.733223E-2,3.5433143E-3,1.53682E-1,1.1819404E-1,-2.7643759E-2,1.6963065E-2,1.9050322E-1,-2.8035587E-2,7.956044E-2,1.2911974E-1,2.194988E-1,1.8443026E-1,6.135263E-2,3.479934E-2,-9.931582E-2,1.3512151E-2,1.152881E-1,-1.3273723E-2,-1.0019121E-1,-1.2159913E-2,-1.0833599E-1,8.119804E-2,-6.7825146E-2,1.4384826E-1,1.822849E-1,2.5075404E-2,1.5824978E-1,7.62863E-2,-3.9369337E-2,1.9244646E-1,1.1634314E-1,-1.8254744E-2,1.3172555E-1,1.5081586E-1,2.7227078E-2],"split_indices":[30,30,30,12,19,19,30,0,30,11,12,14,19,19,28,10,1,3,0,6,1,13,9,19,7,19,28,7,0,0,0,0,19,12,0,28,0,30,24,30,0,19,30,7,30,18,30,13,28,9,19,30,30,9,23,9,1,13,19,30,19,0,19,0,0,12,24,30,18,6,7,29,0,19,13,14,27,0,0,0,24,14,1,13,24,0,22,30,29,19,0,19,19,5,30,0,27,28,0,9,19,14,19,19,19,0,0,19,21,19,18,1,1,25,19,9,1,1,9,0,28,6,22,0,0,19,0,24,0,13,9,18,28,0,24,19,19,9,0,25,21,25,20,0,19,0,0,23,19,19,0,22,0,27,0,0,0,0,0,0,0,0,0,0,0,0,0,0,0,0,0,0,0,0,0,0,0,0,0,0,0,0,0,0,0,0,0,0,0,0,0,0,0,0,0,0,0,0,0,0,0,0,0,0,0,0,0,0,0,0,0,0,0,0,0,0,0,0,0,0,0,0,0,0,0,0,0,0,0,0,0,0,0,0,0,0,0,0,0,0,0,0,0,0,0,0,0,0,0],"split_type":[0,0,0,0,0,0,0,0,0,0,0,0,0,0,0,0,0,0,0,0,0,0,0,0,0,0,0,0,0,0,0,0,0,0,0,0,0,0,0,0,0,0,0,0,0,0,0,0,0,0,0,0,0,0,0,0,0,0,0,0,0,0,0,0,0,0,0,0,0,0,0,0,0,0,0,0,0,0,0,0,0,0,0,0,0,0,0,0,0,0,0,0,0,0,0,0,0,0,0,0,0,0,0,0,0,0,0,0,0,0,0,0,0,0,0,0,0,0,0,0,0,0,0,0,0,0,0,0,0,0,0,0,0,0,0,0,0,0,0,0,0,0,0,0,0,0,0,0,0,0,0,0,0,0,0,0,0,0,0,0,0,0,0,0,0,0,0,0,0,0,0,0,0,0,0,0,0,0,0,0,0,0,0,0,0,0,0,0,0,0,0,0,0,0,0,0,0,0,0,0,0,0,0,0,0,0,0,0,0,0,0,0,0,0,0,0,0,0,0,0,0,0,0,0,0,0,0,0,0,0,0,0,0,0,0,0,0,0,0,0,0,0,0,0,0,0,0,0,0],"sum_hessian":[5.1016104E3,3.551528E3,1.5500823E3,3.1419937E3,4.0953436E2,5.16129E2,1.0339532E3,2.4281042E3,7.138894E2,1.9731834E2,2.12216E2,2.564963E2,2.5963275E2,3.4266623E2,6.91287E2,4.639962E2,2.4989323E2,1.9478099E2,2.5373638E0,1.5855653E2,5.365948E1,1.9975233E2,5.674397E1,1.1527033E2,1.4436241E2,1.13752975E2,2.2891325E2,6.9021423E2,1.0727464E0,4.625235E2,1.472688E0,1.1689506E2,1.3299818E2,1.9344788E2,1.3331146E0,1.0513111E2,5.342542E1,3.1338182E1,2.2321297E1,1.26649666E2,7.310266E1,3.0615282E1,2.6128687E1,7.258784E1,4.2682495E1,1.336808E2,1.0681601E1,6.701092E1,4.6742058E1,2.1274753E2,1.6165716E1,6.3805963E2,5.2154633E1,6.844966E1,6.4548515E1,1.4761777E2,4.58301E1,5.5214443E1,4.9916668E1,1.2351003E1,4.1074417E1,1.7108479E0,2.9627335E1,2.1153173E1,1.1681222E0,7.17564E1,5.489327E1,1.6462275E1,5.664039E1,4.6793036E0,2.5935978E1,2.5009567E1,1.1191202E0,6.85791E1,4.008736E0,1.7194647E1,2.5487848E1,1.4851161E0,1.321957E2,2.1346815E0,8.546919E0,4.5617836E1,2.1393084E1,3.2243954E1,1.4498107E1,1.10284836E2,1.0246269E2,3.6012266E0,1.256449E1,2.8769748E2,3.5036215E2,1.2556927E1,3.9597706E1,2.7149033E1,4.130063E1,2.5289726E1,3.9258793E1,6.9796814E1,7.782095E1,2.5580631E1,2.0249472E1,3.64846E1,1.8729843E1,2.3185793E1,2.6730877E1,1.1206951E1,1.1440516E0,1.4217642E1,2.6856775E1,1.2285318E1,1.7342016E1,3.6100395E1,3.5656006E1,1.199454E1,4.2898727E1,1.1874447E1,4.5878277E0,5.155337E1,5.087016E0,1.717002E0,2.9623017E0,1.460921E1,1.1326769E1,1.2954038E0,2.3714163E1,4.6009613E1,2.2569487E1,2.9297724E0,1.0789639E0,1.2148796E1,5.045851E0,2.133054E1,4.157309E0,6.0290365E0,2.517882E0,3.0369757E1,1.5248078E1,1.1092295E1,1.0300789E1,2.6185308E1,6.058644E0,1.1729967E1,2.76814E0,1.3751172E0,1.0108758E2,2.320318E0,1.2809087E0,8.2349415E0,4.329549E0,1.20647E2,1.6705048E2,8.968607E0,3.58832E0,5.369059E0,3.422865E1,2.2560759E0,2.4892956E1,3.7194813E1,4.105813E0,4.6442876E0,2.064544E1,6.7842975E0,3.2474495E1,3.5720444E0,6.622477E1,9.16665E0,1.641398E1,3.2733047E0,1.6976168E1,3.061009E1,5.874508E0,1.7314445E1,1.4153976E0,1.7088758E1,6.0970354E0,2.1700653E1,5.0302234E0,1.07015295E1,3.5161123E0,1.1776824E0,2.5679094E1,8.341314E0,3.944005E0,1.4029088E0,1.5939107E1,1.764443E1,1.8455963E1,1.7217852E1,1.8438154E1,9.786343E0,2.208197E0,6.05276E0,3.6845966E1,7.4459124E0,4.4285345E0,1.9748913E0,2.6129365E0,2.8082096E1,2.3471277E1,3.4867208E0,1.6002952E0,1.1112965E0,1.8510052E0,2.5146306E0,1.2094579E1,1.0254529E1,1.0722399E0,3.7353027E1,8.656586E0,1.6751713E0,1.2546012E0,8.540768E0,3.6080291E0,2.0860775E0,2.9597738E0,1.296799E0,2.003374E1,2.3924031E0,1.7649058E0,1.098879E0,4.9301577E0,1.1642754E0,1.3536068E0,1.1140754E1,1.9229004E1,5.4938216E0,9.754257E0,6.815191E0,4.277104E0,1.5405096E1,1.0780212E1,1.037023E0,5.021621E0,1.9589517E0,9.771015E0,1.4926178E0,1.2755221E0,3.988162E1,6.120596E1,1.0397239E0,7.1952176E0,3.084316E0,1.2452327E0,6.2122047E1,5.852496E1,6.976644E0,1.991963E0,1.9609916E0,3.4080672E0],"tree_param":{"num_deleted":"0","num_feature":"31","num_nodes":"249","size_leaf_vector":"1"}},{"base_weights":[-2.2356729E-1,-9.5524603E-1,1.2919089E0,-1.0826503E0,2.3063509E-2,8.069184E-1,1.6125953E0,-1.1382834E-1,-8.946209E-1,-8.2390803E-1,7.6714486E-1,1.8193904E-1,1.4259126E0,1.4448845E0,1.7675066E0,-1.134151E0,-4.6363637E-1,-8.583753E-1,1.1971209E-1,5.5141765E-1,1.3847742E0,-1.9827783E-1,5.612748E-1,1.1728218E0,1.6157049E0,1.056347E0,1.6719688E0,1.798194E0,1.4781287E0,-1.13623776E-1,-3.0624254E-2,-1.1297845E-1,8.671396E-2,-8.8153493E-1,1.1840942E-1,2.355906E-1,1.1150712E0,1.0672662E0,1.7496916E0,-2.2315037E-2,-6.291595E-1,7.7994E-1,-3.7487844E-1,1.2342771E0,1.8109164E-1,1.6565974E0,1.0387704E0,1.5251842E0,4.2640275E-1,1.7201302E0,8.391713E-1,1.8098287E-1,1.2767012E0,9.251594E-1,1.5581715E-1,-8.098456E-1,9.541806E-1,-3.322118E-1,-9.4004434E-1,-2.9066953E-1,7.636771E-1,1.861579E-1,8.6367613E-1,2.2072825E-1,1.199737E0,1.7981051E-1,4.7865912E-2,2.5250918E-1,-5.94003E-1,-2.4050418E-1,-1.0965842E-1,1.0809351E0,2.265016E-1,-5.503898E-1,4.7367394E-1,8.590901E-1,1.4313291E0,-3.941123E-1,1.3355537E-1,1.4172606E0,1.772412E-1,1.6576527E-1,6.2028235E-1,1.3443718E0,1.8200706E-1,7.1126423E-3,1.3844581E0,1.5421048E0,1.8104243E-1,3.4432948E-1,1.5383117E0,1.8930213E-1,1.5173736E0,2.7822742E-1,1.2334697E0,-4.5189255E-1,-1.0377773E0,4.3377057E-1,1.3032061E0,-5.461469E-1,1.0510923E-1,-1.018128E0,-6.43245E-1,-7.967052E-1,5.6144387E-1,2.8671688E-1,1.1404065E0,2.6990488E-1,1.1537744E0,-7.458881E-2,8.593548E-2,1.0264914E-2,1.2511507E0,5.973907E-1,4.9665865E-2,3.9353025E-1,-7.639473E-1,4.40128E-1,-6.939689E-1,6.030917E-1,1.2149926E0,-3.4233E-1,7.879859E-1,2.2030306E-1,-7.555587E-1,1.4629054E-1,-2.402656E-1,1.2100096E0,1.301723E-1,1.4783744E0,5.3517133E-1,-6.845844E-2,4.0894274E-2,6.321438E-1,1.483849E0,-4.2646244E-2,8.490489E-1,1.510122E0,9.277004E-1,-2.6694027E-1,5.762207E-1,3.4849948E-1,1.8875241E-1,1.2557311E0,1.6931437E-1,-2.1124513E-1,1.0525016E0,7.1765745E-1,1.8878704E-1,5.9271347E-2,-2.9845972E-2,1.683294E-1,1.6092947E-2,-5.628538E-2,9.59849E-2,1.5454242E-1,-3.9946414E-3,-5.7785656E-2,6.646809E-2,-1.1085564E-1,-3.322128E-2,1.4282271E-1,9.864968E-4,8.476212E-2,1.7765276E-1,-9.01516E-2,5.240236E-2,-1.08232275E-1,-7.964324E-2,6.0423832E-2,-7.550171E-2,-1.10324286E-1,6.2243816E-2,7.0895806E-2,-7.867532E-2,6.380077E-2,-6.9477245E-2,1.3159129E-1,3.144865E-2,5.8119755E-2,-6.8367176E-2,1.323468E-1,6.058519E-2,1.5134768E-1,7.974156E-2,2.8355348E-1,2.3299096E-2,3.87753E-2,-3.0671103E-2,9.190049E-2,-4.526561E-2,-8.3560914E-2,3.6607645E-2,1.8536569E-1,-6.09563E-2,-7.730892E-2,-5.149638E-4,7.224142E-2,-7.804927E-2,9.3059376E-2,1.530613E-1,3.6523396E-3,-8.625597E-2,2.133938E-1,4.330429E-2,-6.063815E-2,9.3254186E-2,-8.840006E-2,-1.42986225E-2,2.2714596E-2,-6.8899065E-2,-2.2152213E-2,1.4668474E-1,4.2472277E-2,-7.5471185E-2,1.77058E-1,1.2937897E-1,-5.1147033E-2,1.0216131E-1,1.02743246E-1,-5.685068E-2,4.4937443E-2,1.5418646E-1,1.3104835E-1,3.6804795E-2,1.602766E-1,4.264234E-2,-7.549466E-3,1.3665853E-1,6.789268E-2,-4.8106644E-2,1.23774186E-1,1.2859908E-2,-1.0141871E-1,1.9569205E-1,1.5105395E-1,7.765513E-2,-7.403399E-2,4.4778574E-2,1.3697177E-1,-1.7134453E-3,9.243057E-2,1.2457821E-2],"categories":[],"categories_nodes":[],"categories_segments":[],"categories_sizes":[],"default_left":[0,0,0,0,0,0,0,0,0,0,0,0,0,0,0,0,0,0,0,0,0,0,0,0,0,0,0,0,0,0,0,0,0,0,0,0,0,0,0,0,0,0,0,0,0,0,0,0,0,0,0,0,0,0,0,0,0,0,0,0,0,0,0,0,0,0,0,0,0,0,0,0,0,0,0,0,0,0,0,0,0,0,0,0,0,0,0,0,0,0,0,0,0,0,0,0,0,0,0,0,0,0,0,0,0,0,0,0,0,0,0,0,0,0,0,0,0,0,0,0,0,0,0,0,0,0,0,0,0,0,0,0,0,0,0,0,0,0,0,0,0,0,0,0,0,0,0,0,0,0,0,0,0,0,0,0,0,0,0,0,0,0,0,0,0,0,0,0,0,0,0,0,0,0,0,0,0,0,0,0,0,0,0,0,0,0,0,0,0,0,0,0,0,0,0,0,0,0,0,0,0,0,0,0,0,0,0,0,0,0,0,0,0,0,0,0,0,0,0,0,0,0,0,0,0,0,0,0,0,0,0,0,0,0,0,0,0,0,0,0,0,0,0],"id":5,"left_children":[1,3,5,7,9,11,13,-1,15,17,19,21,23,25,27,29,31,33,-1,35,37,39,41,43,45,47,49,51,53,-1,-1,-1,55,57,-1,59,61,63,65,67,69,71,73,75,77,79,81,83,85,87,89,-1,91,93,-1,95,97,99,101,103,105,-1,107,109,111,-1,-1,113,115,117,-1,119,121,123,125,127,129,131,-1,133,-1,-1,135,137,-1,139,141,143,-1,145,147,149,151,153,155,157,159,161,163,165,-1,167,169,171,173,175,177,179,181,-1,-1,-1,183,185,187,189,191,193,195,197,199,201,203,205,207,-1,209,211,213,215,217,-1,-1,219,221,-1,223,225,227,229,231,233,-1,235,-1,237,239,241,-1,-1,-1,-1,-1,-1,-1,-1,-1,-1,-1,-1,-1,-1,-1,-1,-1,-1,-1,-1,-1,-1,-1,-1,-1,-1,-1,-1,-1,-1,-1,-1,-1,-1,-1,-1,-1,-1,-1,-1,-1,-1,-1,-1,-1,-1,-1,-1,-1,-1,-1,-1,-1,-1,-1,-1,-1,-1,-1,-1,-1,-1,-1,-1,-1,-1,-1,-1,-1,-1,-1,-1,-1,-1,-1,-1,-1,-1,-1,-1,-1,-1,-1,-1,-1,-1,-1,-1,-1,-1,-1,-1,-1,-1,-1],"loss_changes":[5.377426E3,4.0764722E2,2.442959E2,2.9250244E1,2.3872974E2,2.4366888E2,2.211621E1,0E0,6.815912E1,1.336898E1,2.6102219E1,4.552891E1,1.3314697E1,3.8945557E1,1.685791E0,3.8970947E-1,8.785481E1,9.311386E0,0E0,2.6635788E1,4.1036377E0,1.1965768E1,3.261361E1,8.26886E0,2.4856567E0,5.042047E1,1.0168152E1,3.4472656E-1,8.8287354E-1,0E0,0E0,0E0,1.03439156E2,5.2606506E0,0E0,2.7487074E1,8.525047E0,3.1130524E0,5.185318E-1,1.7939367E1,8.0527935E0,2.1131012E1,4.8138638E0,8.458099E0,6.703822E0,2.0565186E0,2.7226782E0,2.8183746E0,3.0186817E1,1.592041E0,5.621359E0,0E0,3.1006126E0,1.4722743E0,0E0,4.8714943E0,1.1704441E1,5.971129E0,2.9640503E0,2.19482E1,8.521498E0,0E0,6.9673843E0,3.913465E0,1.3279686E0,0E0,0E0,5.3687944E0,6.519868E0,8.415485E0,0E0,4.574562E0,1.5111477E1,4.245244E0,4.4316177E0,1.2024376E1,2.767685E0,1.9084283E0,0E0,2.1327515E0,0E0,0E0,2.813683E0,3.0910416E0,0E0,8.465713E0,1.1265461E1,2.1353455E0,0E0,4.8252983E0,6.762428E-1,8.633218E-1,2.0825272E0,2.9647427E0,2.3947916E0,4.214798E0,1.5903206E0,1.2049381E1,7.1055756E0,6.7294273E0,0E0,8.730545E-1,5.37004E0,1.4475903E1,4.3693075E0,8.39656E0,3.5256157E0,4.901793E0,1.8092155E0,0E0,0E0,0E0,1.7182007E0,2.2573336E1,6.1047783E0,3.1287694E0,2.8937416E0,1.7627174E1,8.7662506E-1,3.8882952E0,4.294739E0,4.718439E0,1.0392713E1,4.2145596E0,1.4942207E0,0E0,1.0404284E0,1.2100361E1,4.6464915E0,2.004486E0,3.4641604E0,0E0,0E0,3.590443E0,2.5121155E0,0E0,1.4566698E0,3.82827E0,9.394453E0,7.7504497E0,5.0637755E0,2.1063656E1,0E0,3.4534454E0,0E0,2.9079068E0,1.8253255E0,3.4178007E-1,0E0,0E0,0E0,0E0,0E0,0E0,0E0,0E0,0E0,0E0,0E0,0E0,0E0,0E0,0E0,0E0,0E0,0E0,0E0,0E0,0E0,0E0,0E0,0E0,0E0,0E0,0E0,0E0,0E0,0E0,0E0,0E0,0E0,0E0,0E0,0E0,0E0,0E0,0E0,0E0,0E0,0E0,0E0,0E0,0E0,0E0,0E0,0E0,0E0,0E0,0E0,0E0,0E0,0E0,0E0,0E0,0E0,0E0,0E0,0E0,0E0,0E0,0E0,0E0,0E0,0E0,0E0,0E0,0E0,0E0,0E0,0E0,0E0,0E0,0E0,0E0,0E0,0E0,0E0,0E0,0E0,0E0,0E0,0E0,0E0,0E0,0E0,0E0,0E0,0E0,0E0,0E0,0E0,0E0,0E0],"parents":[2147483647,0,0,1,1,2,2,3,3,4,4,5,5,6,6,8,8,9,9,10,10,11,11,12,12,13,13,14,14,15,15,16,16,17,17,19,19,20,20,21,21,22,22,23,23,24,24,25,25,26,26,27,27,28,28,32,32,33,33,35,35,36,36,37,37,38,38,39,39,40,40,41,41,42,42,43,43,44,44,45,45,46,46,47,47,48,48,49,49,50,50,52,52,53,53,55,55,56,56,57,57,58,58,59,59,60,60,62,62,63,63,64,64,67,67,68,68,69,69,71,71,72,72,73,73,74,74,75,75,76,76,77,77,79,79,82,82,83,83,85,85,86,86,87,87,89,89,90,90,91,91,92,92,93,93,94,94,95,95,96,96,97,97,98,98,99,99,101,101,102,102,103,103,104,104,105,105,106,106,107,107,108,108,112,112,113,113,114,114,115,115,116,116,117,117,118,118,119,119,120,120,121,121,122,122,123,123,124,124,126,126,127,127,128,128,129,129,130,130,133,133,134,134,136,136,137,137,138,138,139,139,140,140,141,141,143,143,145,145,146,146,147,147],"right_children":[2,4,6,8,10,12,14,-1,16,18,20,22,24,26,28,30,32,34,-1,36,38,40,42,44,46,48,50,52,54,-1,-1,-1,56,58,-1,60,62,64,66,68,70,72,74,76,78,80,82,84,86,88,90,-1,92,94,-1,96,98,100,102,104,106,-1,108,110,112,-1,-1,114,116,118,-1,120,122,124,126,128,130,132,-1,134,-1,-1,136,138,-1,140,142,144,-1,146,148,150,152,154,156,158,160,162,164,166,-1,168,170,172,174,176,178,180,182,-1,-1,-1,184,186,188,190,192,194,196,198,200,202,204,206,208,-1,210,212,214,216,218,-1,-1,220,222,-1,224,226,228,230,232,234,-1,236,-1,238,240,242,-1,-1,-1,-1,-1,-1,-1,-1,-1,-1,-1,-1,-1,-1,-1,-1,-1,-1,-1,-1,-1,-1,-1,-1,-1,-1,-1,-1,-1,-1,-1,-1,-1,-1,-1,-1,-1,-1,-1,-1,-1,-1,-1,-1,-1,-1,-1,-1,-1,-1,-1,-1,-1,-1,-1,-1,-1,-1,-1,-1,-1,-1,-1,-1,-1,-1,-1,-1,-1,-1,-1,-1,-1,-1,-1,-1,-1,-1,-1,-1,-1,-1,-1,-1,-1,-1,-1,-1,-1,-1,-1,-1,-1,-1,-1],"split_conditions":[6.9818723E-1,5.157914E-1,9.755186E-1,1E0,1.7299578E-1,1.7299578E-1,1.1885629E0,-1.1382834E-1,-4.298262E-2,1E0,1E0,8.484395E-1,2.2651933E-1,1.2547529E-1,9.2E-1,1E0,1E0,1E0,1.1971209E-1,1E0,1E0,1E0,1E0,1E0,9.2E-1,1.1391364E-1,1E0,1E0,1.396844E-1,-1.13623776E-1,-3.0624254E-2,-1.1297845E-1,1.7299578E-1,1.5839127E-1,1.1840942E-1,8.4E-1,1E0,1.418276E-1,1.7648114E-1,1E0,1E0,1E0,1.8292682E-1,7.8863764E-1,1E0,7.8863764E-1,1E0,1E0,1E0,1.6666512E-1,2.236842E-1,1.8098287E-1,1.3934426E-1,1.2547529E-1,1.5581715E-1,1E0,1.9061857E-1,1E0,1.4634146E-1,1E0,2.2651933E-1,1.861579E-1,2.2651933E-1,1.6253974E-1,5.270043E-1,1.7981051E-1,4.7865912E-2,1E0,1.4084508E-1,1E0,-1.0965842E-1,1.4918919E-1,1E0,1.3306452E-1,8.4E-1,2.236842E-1,1.6363636E-1,1.914288E-1,1.3355537E-1,1.2737769E-1,1.772412E-1,1.6576527E-1,7.5499904E-1,1E0,1.8200706E-1,1.1354887E0,1.0713885E0,1.0577462E0,1.8104243E-1,1.6342412E-1,1.7050691E-1,1E0,2.0319155E-1,1.2913474E0,1.3546793E-1,1.6666512E-1,4.4477668E-1,1E0,1.4705053E-1,1E0,1.0510923E-1,1E0,7.2E-1,1E0,2.936803E-1,2.236842E-1,2.936803E-1,2.236842E-1,1.6946779E-1,-7.458881E-2,8.593548E-2,1.0264914E-2,6.1670715E-1,1E0,1E0,1E0,1.730769E-1,1E0,1.6666512E-1,2.0319155E-1,1.2547529E-1,1E0,1.0783365E-1,1.1874911E-1,1.784188E-1,1.4629054E-1,1E0,2.074948E-1,1E0,2.079395E-1,1.7821783E-1,-6.845844E-2,4.0894274E-2,1.20383255E-1,6.8E-1,-4.2646244E-2,8.353579E-1,1E0,1.0577462E0,1.0024295E0,1.5319154E-1,1E0,1.8875241E-1,1E0,1.6931437E-1,2.074948E-1,2.079395E-1,1.5384825E-1,1.8878704E-1,5.9271347E-2,-2.9845972E-2,1.683294E-1,1.6092947E-2,-5.628538E-2,9.59849E-2,1.5454242E-1,-3.9946414E-3,-5.7785656E-2,6.646809E-2,-1.1085564E-1,-3.322128E-2,1.4282271E-1,9.864968E-4,8.476212E-2,1.7765276E-1,-9.01516E-2,5.240236E-2,-1.08232275E-1,-7.964324E-2,6.0423832E-2,-7.550171E-2,-1.10324286E-1,6.2243816E-2,7.0895806E-2,-7.867532E-2,6.380077E-2,-6.9477245E-2,1.3159129E-1,3.144865E-2,5.8119755E-2,-6.8367176E-2,1.323468E-1,6.058519E-2,1.5134768E-1,7.974156E-2,2.8355348E-1,2.3299096E-2,3.87753E-2,-3.0671103E-2,9.190049E-2,-4.526561E-2,-8.3560914E-2,3.6607645E-2,1.8536569E-1,-6.09563E-2,-7.730892E-2,-5.149638E-4,7.224142E-2,-7.804927E-2,9.3059376E-2,1.530613E-1,3.6523396E-3,-8.625597E-2,2.133938E-1,4.330429E-2,-6.063815E-2,9.3254186E-2,-8.840006E-2,-1.42986225E-2,2.2714596E-2,-6.8899065E-2,-2.2152213E-2,1.4668474E-1,4.2472277E-2,-7.5471185E-2,1.77058E-1,1.2937897E-1,-5.1147033E-2,1.0216131E-1,1.02743246E-1,-5.685068E-2,4.4937443E-2,1.5418646E-1,1.3104835E-1,3.6804795E-2,1.602766E-1,4.264234E-2,-7.549466E-3,1.3665853E-1,6.789268E-2,-4.8106644E-2,1.23774186E-1,1.2859908E-2,-1.0141871E-1,1.9569205E-1,1.5105395E-1,7.765513E-2,-7.403399E-2,4.4778574E-2,1.3697177E-1,-1.7134453E-3,9.243057E-2,1.2457821E-2],"split_indices":[30,30,30,12,19,19,30,0,30,11,12,30,19,19,28,10,1,3,0,6,1,13,14,7,28,19,7,2,25,0,0,0,19,16,0,28,0,27,21,14,9,13,25,30,13,30,7,1,12,19,19,0,22,19,0,9,30,6,19,13,19,0,19,23,30,0,0,9,18,6,0,24,1,25,28,19,20,24,0,27,0,0,30,13,0,30,30,30,0,22,24,13,23,30,25,19,30,0,27,12,0,12,28,14,19,19,19,19,25,0,0,0,30,5,12,9,21,7,19,23,19,9,19,22,23,0,7,19,13,19,23,0,0,27,28,0,30,6,30,30,23,1,0,13,0,19,19,25,0,0,0,0,0,0,0,0,0,0,0,0,0,0,0,0,0,0,0,0,0,0,0,0,0,0,0,0,0,0,0,0,0,0,0,0,0,0,0,0,0,0,0,0,0,0,0,0,0,0,0,0,0,0,0,0,0,0,0,0,0,0,0,0,0,0,0,0,0,0,0,0,0,0,0,0,0,0,0,0,0,0,0,0,0,0,0,0,0,0,0,0,0,0,0],"split_type":[0,0,0,0,0,0,0,0,0,0,0,0,0,0,0,0,0,0,0,0,0,0,0,0,0,0,0,0,0,0,0,0,0,0,0,0,0,0,0,0,0,0,0,0,0,0,0,0,0,0,0,0,0,0,0,0,0,0,0,0,0,0,0,0,0,0,0,0,0,0,0,0,0,0,0,0,0,0,0,0,0,0,0,0,0,0,0,0,0,0,0,0,0,0,0,0,0,0,0,0,0,0,0,0,0,0,0,0,0,0,0,0,0,0,0,0,0,0,0,0,0,0,0,0,0,0,0,0,0,0,0,0,0,0,0,0,0,0,0,0,0,0,0,0,0,0,0,0,0,0,0,0,0,0,0,0,0,0,0,0,0,0,0,0,0,0,0,0,0,0,0,0,0,0,0,0,0,0,0,0,0,0,0,0,0,0,0,0,0,0,0,0,0,0,0,0,0,0,0,0,0,0,0,0,0,0,0,0,0,0,0,0,0,0,0,0,0,0,0,0,0,0,0,0,0,0,0,0,0,0,0,0,0,0,0,0,0,0,0,0,0,0,0],"sum_hessian":[4.847475E3,3.2693757E3,1.5780996E3,2.8925723E3,3.7680344E2,6.2953613E2,9.485635E2,2.2282388E3,6.643335E2,1.7616798E2,2.0063545E2,3.1389746E2,3.1563867E2,4.6042416E2,4.8813928E2,4.2596277E2,2.3837071E2,1.7377957E2,2.3884144E0,1.5010068E2,5.0534767E1,1.5700505E2,1.5689241E2,1.383399E2,1.7729875E2,1.7192137E2,2.885028E2,4.3662308E2,5.15162E1,4.2452032E2,1.4424349E0,1.0736386E2,1.3100685E2,1.723932E2,1.3863726E0,9.7107346E1,5.2993343E1,2.9121424E1,2.1413345E1,1.1222611E2,4.4778934E1,1.2732006E2,2.957235E1,1.3003722E2,8.302693E0,1.6381627E2,1.3482486E1,9.774977E1,7.41716E1,2.7172336E2,1.6779444E1,4.2467786E2,1.1945223E1,8.102064E0,4.341414E1,6.445578E1,6.655106E1,1.7237232E1,1.5515598E2,4.8862957E1,4.8244385E1,1.1736693E1,4.125665E1,4.3012247E0,2.4820198E1,2.0228178E1,1.1851677E0,7.616842E1,3.605769E1,2.52765E1,1.9502432E1,8.185109E1,4.5468975E1,2.4795185E1,4.777165E0,4.6624264E1,8.341295E1,5.9812093E0,2.3214843E0,5.773709E1,1.0607918E2,4.2444773E0,9.2380085E0,6.404123E1,3.3708546E1,5.22931E1,2.1878498E1,9.75234E1,1.7419995E2,1.0699203E1,6.0802417E0,2.4884655E0,9.456758E0,3.229011E0,4.873053E0,2.6236118E1,3.8219666E1,2.7616552E1,3.893451E1,1.5452595E1,1.7846372E0,1.20914665E2,3.4241302E1,3.06978E1,1.8165157E1,2.2067179E1,2.6177206E1,1.4174586E1,2.7082062E1,1.6443708E0,2.656854E0,1.2452421E0,2.3574957E1,2.7487722E1,4.86807E1,5.1009307E0,3.095676E1,1.0118482E1,1.515802E1,1.9136917E1,6.271417E1,2.2780596E1,2.268838E1,5.197526E0,1.9597658E1,1.5627562E0,3.2144089E0,3.1027048E1,1.5597217E1,7.863518E1,4.7777658E0,4.500767E0,1.4804424E0,5.3344245E0,5.2402668E1,1.5018693E0,7.7361393E0,4.3938442E1,2.0102783E1,3.565463E1,1.663847E1,7.7048116E0,1.4173686E1,3.6891026E1,6.0632378E1,6.388783E0,4.3104196E0,2.7282367E0,3.352005E0,1.2442328E0,1.2442328E0,8.211379E0,1.2453784E0,1.52343E0,1.705581E0,3.7426057E0,1.1304476E0,2.4009956E1,2.2261615E0,3.42161E1,4.003565E0,7.5456676E0,2.0070885E1,2.1261002E1,1.7673508E1,1.1718767E1,3.7338278E0,9.075379E1,3.0160875E1,2.4533696E0,3.1787931E1,2.5427921E1,5.2698793E0,1.6801004E1,1.3641534E0,1.6508486E1,5.5586925E0,2.110019E1,5.0770183E0,1.0980529E1,3.1940575E0,1.9597282E1,7.4847803E0,1.345841E1,1.0116547E1,2.8992338E0,2.458849E1,2.493621E1,2.3744488E1,3.0937085E0,2.0072222E0,2.9355673E1,1.6010866E0,3.985561E0,6.1329207E0,1.3486563E1,1.6714566E0,1.8057482E1,1.0794368E0,3.5065674E1,2.7648495E1,1.3719364E1,9.061232E0,3.6886961E0,1.8999683E1,2.4742863E0,2.7232397E0,1.5834456E1,3.7632022E0,1.8162847E0,1.3981241E0,4.7408056E0,2.6286242E1,1.2092142E1,3.5050743E0,2.711644E1,5.151874E1,1.4996421E0,3.2781239E0,4.1217093E0,1.212715E0,3.2472188E0,4.915545E1,3.068229E0,4.6679106E0,4.003677E1,3.9016733E0,6.3701034E0,1.373268E1,6.1808887E0,2.9473742E1,6.0024905E0,1.0635979E1,4.3710346E0,3.3337767E0,2.267895E1,1.4212076E1,3.4753027E0,2.9134803E0,3.1081166E0,1.2023028E0,1.6090906E0,1.119146E0],"tree_param":{"num_deleted":"0","num_feature":"31","num_nodes":"243","size_leaf_vector":"1"}},{"base_weights":[-2.1438012E-1,-1.0603658E0,9.7266346E-1,-1.1199775E0,-8.620883E-1,3.0209127E-1,1.3653413E0,-1.1233113E-1,-6.334635E-1,-1.1188624E0,-4.2812797E-1,-4.5549214E-1,9.506539E-1,1.0918732E0,1.5505832E0,-9.171385E-1,3.222804E-2,-1.1211123E-1,-2.9175712E-2,-1.0994508E0,9.56811E-2,-7.8567916E-1,-1.1388069E-1,6.154822E-1,1.1941377E0,5.0561E-1,1.3703368E0,1.5551095E0,-7.55934E-2,-1.0527567E-1,-2.7449572E-1,-3.9415053E-1,9.878415E-2,-1.1140048E-1,-4.6344942E-1,-7.685003E-1,8.608806E-1,-8.2035035E-1,1.08934246E-1,1.8103567E-1,-3.7319887E-1,9.1540116E-1,-2.9697085E-2,1.6099718E0,1.0430497E0,9.275587E-1,-5.404344E-2,1.4263775E0,5.742214E-1,1.431569E0,1.6607009E0,2.2490693E-2,-6.250479E-2,-9.0553515E-2,2.3883846E-2,2.7820213E-2,-8.362002E-2,-4.355588E-1,-9.915659E-1,6.27327E-1,1.6086875E0,-8.439744E-1,1.09531604E-1,5.06388E-1,-5.376039E-1,2.2373098E-1,-7.0707905E-1,5.884302E-1,1.5427622E0,-5.1689655E-1,5.7748747E-1,1.812629E-1,1.1748109E0,-5.133251E-1,1.282882E0,5.482036E-1,1.518961E0,1.4867522E-1,-8.183759E-1,1.1539626E0,1.5740452E0,1.5980291E-1,1.4077392E0,1.1747097E0,1.6099942E0,1.6882895E-1,1.3593498E0,6.635516E-1,-5.644554E-1,-1.0914441E-1,-1.8699521E-1,3.1673366E-1,1.3003285E0,4.3400653E-2,1.6745017E0,-6.1625403E-1,-1.0249393E0,9.6917105E-1,-6.2587106E-1,2.7090484E-1,-6.652384E-1,3.6659953E-1,-8.599823E-2,-9.680506E-1,-2.9098138E-1,9.1295034E-1,-8.405833E-1,1.7743384E0,-2.0623256E-1,-7.9143155E-1,4.2973448E-2,8.393743E-1,1.7028257E-2,-8.543447E-3,1.2533246E0,-9.960748E-1,1.8200366E-1,1.5767405E0,1.081186E0,8.941703E-1,-3.900013E-1,6.0112048E-2,1.5583664E-1,5.162308E-1,-5.503907E-1,-9.321317E-1,-1.3233458E-1,9.765431E-1,1.562249E0,1.6751282E-1,1.3956523E0,-7.237308E-1,6.2145627E-1,1.7911348E-1,6.4622056E-1,1.5055012E0,8.084585E-1,1.6360638E-1,1.1026651E0,-7.825919E-3,1.4161472E-1,-6.639561E-2,1.7353933E-1,7.994289E-2,-6.6335425E-2,5.9364688E-2,-6.114157E-2,1.3319899E-1,-9.0374015E-3,3.838635E-2,1.4897186E-1,4.3526623E-2,1.7512177E-1,1.7299874E-2,-7.353111E-2,-1.06475554E-1,-3.9027467E-2,2.4607657E-1,3.625393E-2,-8.462154E-2,1.139577E-1,1.09199286E-1,-7.025021E-2,-8.39077E-2,-2.065583E-2,7.5106055E-2,-3.417073E-2,-1.08590245E-1,-5.7564523E-2,7.5720004E-3,-9.018563E-2,3.359171E-2,1.2822694E-1,-1.2018194E-1,3.5230063E-2,4.4723056E-2,1.8088579E-1,-1.0337523E-1,1.12821475E-1,-1.9245788E-2,-1.08687654E-1,-8.282479E-2,1.4590423E-1,-1.2280927E-2,1.0934241E-1,-7.5534195E-2,4.3610264E-2,8.078572E-2,1.57768E-1,-1.2113563E-1,2.1404522E-2,5.2947372E-2,-2.890428E-2,1.6785666E-1,5.2064914E-2,4.944315E-2,1.4071065E-1,-1.9985419E-2,1.2789802E-1,-6.685788E-2,8.934619E-2,-8.699128E-2,6.1676722E-2,-7.535141E-2,8.420531E-2,-1.8541211E-2,-1.06618345E-1,-6.332281E-2,4.43779E-2,2.1929076E-2,1.1993907E-1,6.886266E-2,1.6879445E-1,1.435466E-1,1.9178169E-2,-9.442746E-2,-5.5853887E-3,-1.1210276E-2,9.610896E-2,1.09312E-1,-1.0598848E-2,1.5529498E-1,2.5997004E-2,3.6021408E-2,1.751865E-1,2.5910202E-2,1.4743458E-1],"categories":[],"categories_nodes":[],"categories_segments":[],"categories_sizes":[],"default_left":[0,0,0,0,0,0,0,0,0,0,0,0,0,0,0,0,0,0,0,0,0,0,0,0,0,0,0,0,0,0,0,0,0,0,0,0,0,0,0,0,0,0,0,0,0,0,0,0,0,0,0,0,0,0,0,0,0,0,0,0,0,0,0,0,0,0,0,0,0,0,0,0,0,0,0,0,0,0,0,0,0,0,0,0,0,0,0,0,0,0,0,0,0,0,0,0,0,0,0,0,0,0,0,0,0,0,0,0,0,0,0,0,0,0,0,0,0,0,0,0,0,0,0,0,0,0,0,0,0,0,0,0,0,0,0,0,0,0,0,0,0,0,0,0,0,0,0,0,0,0,0,0,0,0,0,0,0,0,0,0,0,0,0,0,0,0,0,0,0,0,0,0,0,0,0,0,0,0,0,0,0,0,0,0,0,0,0,0,0,0,0,0,0,0,0,0,0,0,0,0,0,0,0,0,0,0,0,0,0,0,0,0,0,0,0,0,0,0,0,0,0,0,0,0,0,0,0],"id":6,"left_children":[1,3,5,7,9,11,13,-1,15,17,19,21,23,25,27,29,31,-1,-1,33,35,37,39,41,43,45,47,49,-1,-1,51,53,-1,-1,55,57,59,61,-1,63,65,67,69,71,73,75,77,79,81,83,85,-1,-1,-1,-1,-1,-1,87,89,91,93,95,-1,97,99,101,103,105,107,109,111,-1,113,115,117,119,121,123,125,127,129,131,133,135,137,-1,139,141,143,-1,145,147,149,-1,151,153,155,157,159,161,163,165,-1,167,169,171,173,175,177,179,181,183,185,-1,187,189,191,193,195,197,199,-1,-1,201,203,205,207,209,211,-1,213,215,217,-1,219,221,223,-1,225,-1,-1,-1,-1,-1,-1,-1,-1,-1,-1,-1,-1,-1,-1,-1,-1,-1,-1,-1,-1,-1,-1,-1,-1,-1,-1,-1,-1,-1,-1,-1,-1,-1,-1,-1,-1,-1,-1,-1,-1,-1,-1,-1,-1,-1,-1,-1,-1,-1,-1,-1,-1,-1,-1,-1,-1,-1,-1,-1,-1,-1,-1,-1,-1,-1,-1,-1,-1,-1,-1,-1,-1,-1,-1,-1,-1,-1,-1,-1,-1,-1,-1,-1,-1,-1,-1,-1,-1],"loss_changes":[4.6114326E3,3.0723877E1,5.0277405E2,2.6262207E0,6.9062164E1,3.4782507E2,5.934497E1,0E0,3.1075773E0,4.013977E-1,8.22551E1,3.677014E1,3.0378174E1,7.929492E1,8.64978E0,7.1008396E-1,2.7674384E0,0E0,0E0,4.3221283E-1,8.804555E1,1.1685188E1,1.2440194E1,3.146788E1,1.2127991E1,3.768332E1,1.3975159E1,6.947998E0,0E0,0E0,7.27095E-1,1.7540361E0,0E0,0E0,1.3397658E0,4.2163315E0,1.1314018E1,8.326324E0,0E0,1.8128103E1,1.738062E1,2.1851593E1,1.5838271E1,2.8733215E0,6.188797E1,1.9564362E1,1.088241E1,1.0618408E1,7.885918E0,1.3539001E1,8.57666E-1,0E0,0E0,0E0,0E0,0E0,0E0,4.1845016E0,2.7446365E0,1.1169498E1,5.2204514E-1,6.0496216E0,0E0,2.842207E1,2.6862535E0,5.2319956E0,5.762121E0,3.5341507E1,1.5512848E1,4.5948586E0,3.4875422E0,0E0,2.171751E0,7.772969E0,6.736435E0,1.8834684E1,3.2779694E-1,1.4605498E1,1.0247908E0,6.616974E0,1.2273254E0,7.306873E0,1.0817528E0,1.595108E1,7.8796387E-1,0E0,3.126709E0,5.822731E0,3.8499217E0,0E0,2.1053498E0,1.63356E1,2.408945E0,0E0,6.586647E-1,7.108734E0,1.8292084E0,3.355967E1,7.1920576E0,3.9814231E0,1.52213E0,8.087977E0,0E0,9.368458E-1,5.1941624E0,1.2619263E1,6.5932693E0,7.0869446E-1,6.9842353E0,3.3232832E0,1.4423276E1,4.10392E0,3.119102E0,0E0,1.5728703E0,3.7771082E0,1.8083199E0,5.1249847E0,1.6063156E1,1.790039E1,6.332244E0,0E0,0E0,5.6992064E0,6.2038107E0,1.0489569E0,1.221169E0,1.3410095E1,2.393608E0,0E0,3.4394531E0,8.6512566E-1,2.992763E0,0E0,1.5051184E0,3.9281158E0,2.8720417E1,0E0,3.58282E0,0E0,0E0,0E0,0E0,0E0,0E0,0E0,0E0,0E0,0E0,0E0,0E0,0E0,0E0,0E0,0E0,0E0,0E0,0E0,0E0,0E0,0E0,0E0,0E0,0E0,0E0,0E0,0E0,0E0,0E0,0E0,0E0,0E0,0E0,0E0,0E0,0E0,0E0,0E0,0E0,0E0,0E0,0E0,0E0,0E0,0E0,0E0,0E0,0E0,0E0,0E0,0E0,0E0,0E0,0E0,0E0,0E0,0E0,0E0,0E0,0E0,0E0,0E0,0E0,0E0,0E0,0E0,0E0,0E0,0E0,0E0,0E0,0E0,0E0,0E0,0E0,0E0,0E0,0E0,0E0,0E0,0E0,0E0,0E0,0E0,0E0,0E0,0E0],"parents":[2147483647,0,0,1,1,2,2,3,3,4,4,5,5,6,6,8,8,9,9,10,10,11,11,12,12,13,13,14,14,15,15,16,16,19,19,20,20,21,21,22,22,23,23,24,24,25,25,26,26,27,27,30,30,31,31,34,34,35,35,36,36,37,37,39,39,40,40,41,41,42,42,43,43,44,44,45,45,46,46,47,47,48,48,49,49,50,50,57,57,58,58,59,59,60,60,61,61,63,63,64,64,65,65,66,66,67,67,68,68,69,69,70,70,72,72,73,73,74,74,75,75,76,76,77,77,78,78,79,79,80,80,81,81,82,82,83,83,84,84,86,86,87,87,88,88,90,90,91,91,92,92,94,94,95,95,96,96,97,97,98,98,99,99,100,100,101,101,103,103,104,104,105,105,106,106,107,107,108,108,109,109,110,110,111,111,112,112,114,114,115,115,116,116,117,117,118,118,119,119,120,120,123,123,124,124,125,125,126,126,127,127,128,128,130,130,131,131,132,132,134,134,135,135,136,136,138,138],"right_children":[2,4,6,8,10,12,14,-1,16,18,20,22,24,26,28,30,32,-1,-1,34,36,38,40,42,44,46,48,50,-1,-1,52,54,-1,-1,56,58,60,62,-1,64,66,68,70,72,74,76,78,80,82,84,86,-1,-1,-1,-1,-1,-1,88,90,92,94,96,-1,98,100,102,104,106,108,110,112,-1,114,116,118,120,122,124,126,128,130,132,134,136,138,-1,140,142,144,-1,146,148,150,-1,152,154,156,158,160,162,164,166,-1,168,170,172,174,176,178,180,182,184,186,-1,188,190,192,194,196,198,200,-1,-1,202,204,206,208,210,212,-1,214,216,218,-1,220,222,224,-1,226,-1,-1,-1,-1,-1,-1,-1,-1,-1,-1,-1,-1,-1,-1,-1,-1,-1,-1,-1,-1,-1,-1,-1,-1,-1,-1,-1,-1,-1,-1,-1,-1,-1,-1,-1,-1,-1,-1,-1,-1,-1,-1,-1,-1,-1,-1,-1,-1,-1,-1,-1,-1,-1,-1,-1,-1,-1,-1,-1,-1,-1,-1,-1,-1,-1,-1,-1,-1,-1,-1,-1,-1,-1,-1,-1,-1,-1,-1,-1,-1,-1,-1,-1,-1,-1,-1,-1,-1],"split_conditions":[5.270043E-1,1E0,8.607737E-1,5.157914E-1,-4.298262E-2,1.7299578E-1,1.0713885E0,-1.1233113E-1,2.2651933E-1,1E0,1E0,7.088395E-1,2.2651933E-1,1.2946175E-1,9.6E-1,1.9480073E-1,1.7575757E-1,-1.1211123E-1,-2.9175712E-2,5.157914E-1,1.7299578E-1,1E0,1E0,2.236842E-1,2.3583663E-1,1.1391364E-1,1E0,1.2483648E0,-7.55934E-2,-1.0527567E-1,1E0,6.25E-1,9.878415E-2,-1.1140048E-1,1.550152E-1,1E0,3.8871238E-1,1E0,1.08934246E-1,1E0,3.75E-1,2.1337126E-1,7.3033077E-1,1E0,2.4822643E-1,1E0,1E0,1.7299578E-1,1.914288E-1,1.2547529E-1,1E0,2.2490693E-2,-6.250479E-2,-9.0553515E-2,2.3883846E-2,2.7820213E-2,-8.362002E-2,1E0,4.4477668E-1,2.4822643E-1,1.0824801E-1,1E0,1.09531604E-1,1E0,1.3665594E-1,1E0,1E0,2.079395E-1,1E0,1E0,1.7039801E-1,1.812629E-1,1.1650152E-1,7.3033077E-1,2.7331606E-1,1E0,8.736685E-1,1E0,1.2547529E-1,1E0,1E0,2.074948E-1,1.960906E-1,1.1391364E-1,1E0,1.6882895E-1,1.2678005E0,1.3907288E-1,1.17191724E-1,-1.0914441E-1,1.4928225E-1,1E0,1.4290226E-1,4.3400653E-2,1.2991217E-1,1.5839127E-1,1.6666512E-1,1E0,2.0217547E-1,1E0,1E0,1E0,-8.599823E-2,1.4634146E-1,1E0,2.074948E-1,1E0,1.0982659E-1,1E0,1E0,1E0,7.5499904E-1,2.2634643E-1,-8.543447E-3,8E-1,1.8292682E-1,1.6493921E-1,1E0,6.5782094E-1,9.3739486E-1,1.8621236E-1,6.0112048E-2,1.5583664E-1,1.2785482E-1,1.2547529E-1,1.2745099E-1,9.5028967E-1,9.231919E-1,1.6037735E-1,1.6751282E-1,1.8435754E-1,1.0024295E0,1.547451E-1,1.7911348E-1,1.432646E-1,9.2E-1,1E0,1.6360638E-1,1.7299578E-1,-7.825919E-3,1.4161472E-1,-6.639561E-2,1.7353933E-1,7.994289E-2,-6.6335425E-2,5.9364688E-2,-6.114157E-2,1.3319899E-1,-9.0374015E-3,3.838635E-2,1.4897186E-1,4.3526623E-2,1.7512177E-1,1.7299874E-2,-7.353111E-2,-1.06475554E-1,-3.9027467E-2,2.4607657E-1,3.625393E-2,-8.462154E-2,1.139577E-1,1.09199286E-1,-7.025021E-2,-8.39077E-2,-2.065583E-2,7.5106055E-2,-3.417073E-2,-1.08590245E-1,-5.7564523E-2,7.5720004E-3,-9.018563E-2,3.359171E-2,1.2822694E-1,-1.2018194E-1,3.5230063E-2,4.4723056E-2,1.8088579E-1,-1.0337523E-1,1.12821475E-1,-1.9245788E-2,-1.08687654E-1,-8.282479E-2,1.4590423E-1,-1.2280927E-2,1.0934241E-1,-7.5534195E-2,4.3610264E-2,8.078572E-2,1.57768E-1,-1.2113563E-1,2.1404522E-2,5.2947372E-2,-2.890428E-2,1.6785666E-1,5.2064914E-2,4.944315E-2,1.4071065E-1,-1.9985419E-2,1.2789802E-1,-6.685788E-2,8.934619E-2,-8.699128E-2,6.1676722E-2,-7.535141E-2,8.420531E-2,-1.8541211E-2,-1.06618345E-1,-6.332281E-2,4.43779E-2,2.1929076E-2,1.1993907E-1,6.886266E-2,1.6879445E-1,1.435466E-1,1.9178169E-2,-9.442746E-2,-5.5853887E-3,-1.1210276E-2,9.610896E-2,1.09312E-1,-1.0598848E-2,1.5529498E-1,2.5997004E-2,3.6021408E-2,1.751865E-1,2.5910202E-2,1.4743458E-1],"split_indices":[30,12,30,30,30,19,30,0,19,10,1,30,19,19,28,27,27,0,0,30,19,11,9,19,19,19,7,30,0,0,9,29,0,0,24,9,30,3,0,6,29,19,30,1,19,1,14,19,24,19,7,0,0,0,0,0,0,5,30,19,24,9,0,7,17,13,1,19,7,1,24,0,25,30,19,13,30,13,19,12,1,19,25,19,7,0,30,24,20,0,24,0,23,0,25,16,19,5,22,13,1,12,0,19,13,19,12,16,13,9,12,30,19,0,28,25,23,7,30,30,25,0,0,26,19,23,30,30,20,0,16,30,23,0,27,28,12,0,19,0,0,0,0,0,0,0,0,0,0,0,0,0,0,0,0,0,0,0,0,0,0,0,0,0,0,0,0,0,0,0,0,0,0,0,0,0,0,0,0,0,0,0,0,0,0,0,0,0,0,0,0,0,0,0,0,0,0,0,0,0,0,0,0,0,0,0,0,0,0,0,0,0,0,0,0,0,0,0,0,0,0,0,0,0,0,0,0],"split_type":[0,0,0,0,0,0,0,0,0,0,0,0,0,0,0,0,0,0,0,0,0,0,0,0,0,0,0,0,0,0,0,0,0,0,0,0,0,0,0,0,0,0,0,0,0,0,0,0,0,0,0,0,0,0,0,0,0,0,0,0,0,0,0,0,0,0,0,0,0,0,0,0,0,0,0,0,0,0,0,0,0,0,0,0,0,0,0,0,0,0,0,0,0,0,0,0,0,0,0,0,0,0,0,0,0,0,0,0,0,0,0,0,0,0,0,0,0,0,0,0,0,0,0,0,0,0,0,0,0,0,0,0,0,0,0,0,0,0,0,0,0,0,0,0,0,0,0,0,0,0,0,0,0,0,0,0,0,0,0,0,0,0,0,0,0,0,0,0,0,0,0,0,0,0,0,0,0,0,0,0,0,0,0,0,0,0,0,0,0,0,0,0,0,0,0,0,0,0,0,0,0,0,0,0,0,0,0,0,0,0,0,0,0,0,0,0,0,0,0,0,0,0,0,0,0,0,0],"sum_hessian":[4.5900186E3,2.6800789E3,1.9099397E3,2.0569983E3,6.230807E2,7.060295E2,1.2039103E3,2.0416986E3,1.5299615E1,3.904647E2,2.32616E2,3.2578223E2,3.8024722E2,4.8896207E2,7.1494824E2,1.0463163E1,4.8364515E0,3.8905087E2,1.4137985E0,1.0147058E2,1.3114542E2,1.650002E2,1.6078204E2,1.6148294E2,2.1876428E2,1.5836469E2,3.3059738E2,